{"learner":{"attributes":{"scikit_learn":"{\"_estimator_type\": \"regressor\"}"},"feature_names":["vehicle_angle","vehicle_pos","vehicle_speed","vehicle_x","vehicle_y","destination_x","destination_y","euclidean_distance"],"feature_types":["float","float","float","float","float","float","float","float"],"gradient_booster":{"model":{"gbtree_model_param":{"num_parallel_tree":"1","num_trees":"100"},"iteration_indptr":[0,1,2,3,4,5,6,7,8,9,10,11,12,13,14,15,16,17,18,19,20,21,22,23,24,25,26,27,28,29,30,31,32,33,34,35,36,37,38,39,40,41,42,43,44,45,46,47,48,49,50,51,52,53,54,55,56,57,58,59,60,61,62,63,64,65,66,67,68,69,70,71,72,73,74,75,76,77,78,79,80,81,82,83,84,85,86,87,88,89,90,91,92,93,94,95,96,97,98,99,100],"tree_info":[0,0,0,0,0,0,0,0,0,0,0,0,0,0,0,0,0,0,0,0,0,0,0,0,0,0,0,0,0,0,0,0,0,0,0,0,0,0,0,0,0,0,0,0,0,0,0,0,0,0,0,0,0,0,0,0,0,0,0,0,0,0,0,0,0,0,0,0,0,0,0,0,0,0,0,0,0,0,0,0,0,0,0,0,0,0,0,0,0,0,0,0,0,0,0,0,0,0,0,0],"trees":[{"base_weights":[-1.0990543E-5,-1.1348669E2,6.864882E1,-3.3867947E1,-1.8318095E2,1.7779533E1,1.6045866E2,2.2918718E1,-1.2166743E2,-2.1298099E2,-1.424786E2,8.325004E1,-3.247497E1,-5.8648922E1,1.8259477E2,-4.0586227E1,1.4920303E2,-1.447049E2,-8.489546E1,-1.7568333E2,-2.2965932E2,-5.89197E1,-1.5516873E2,3.5425232E1,1.7843921E2,2.5069336E1,-6.631929E1,-9.037254E1,1.23253944E2,-6.358369E1,2.0395096E2,-9.967445E1,3.7827477E1,2.3888073E1,3.6522495E2,-1.2328069E2,-1.6191612E2,-5.8821903E1,-1.1685116E2,-2.1721042E2,-1.18716835E2,-2.4749124E2,-2.1101837E2,-1.6127798E1,-1.038736E2,-1.2815065E2,-1.7473277E2,-7.72752E1,4.6551125E1,2.3452966E2,1.8906654E1,-1.756431E1,1.005846E2,-9.748542E1,-2.241728E1,-9.309664E1,2.4180922E1,5.9561047E1,2.2326591E2,-9.366729E1,2.107698E2,2.9749567E2,1.5144598E2,-3.8035275E1,-1.752998E1,-3.4741437E0,7.8688965E1,-1.4709616E1,2.3113071E1,1.8873032E2,3.6338642E1,-5.662354E1,-3.349203E1,-5.865238E1,-4.4715736E1,1.63043E1,-2.272476E1,-2.1869637E1,-3.9228745E1,-7.1290596E1,-5.7351067E1,-2.6311302E1,-5.612984E1,-7.7057556E1,-7.118508E1,-5.606663E1,-6.505984E1,-8.994052E0,6.6273895E1,-2.3642002E1,-5.0028633E1,1.6930754E1,-4.2464344E1,-5.773878E1,-4.8224358E1,-3.04699E1,-5.7880106E0,2.1789055E1,-2.2388341E0,1.17827995E2,4.7805977E1,2.1140299E1,-1.4674034E1,2.6639166E1,-1.7648222E1,1.2878963E2,2.6439484E1,-2.1116165E1,-3.3050842E1,-1.2009409E1,3.2836268E0,-1.6443666E1,-3.0764116E1,1.13047134E2,-4.27156E0,2.7788282E1,8.0634575E0,9.7603294E1,5.867325E1,8.885036E1,-3.0966043E1,1.655427E1,8.218307E1,-2.4485054E1,9.683933E1,6.638702E1,2.9096384E1],"categories":[],"categories_nodes":[],"categories_segments":[],"categories_sizes":[],"default_left":[0,0,0,0,0,0,0,0,0,0,0,0,0,0,0,0,0,0,0,0,0,0,0,0,0,0,0,0,0,0,0,0,0,0,0,0,0,0,0,0,0,0,0,0,0,0,0,0,0,0,0,0,0,0,0,0,0,0,0,0,0,0,0,0,0,0,0,0,0,0,0,0,0,0,0,0,0,0,0,0,0,0,0,0,0,0,0,0,0,0,0,0,0,0,0,0,0,0,0,0,0,0,0,0,0,0,0,0,0,0,0,0,0,0,0,0,0,0,0,0,0,0,0,0,0,0,0],"id":0,"left_children":[1,3,5,7,9,11,13,15,17,19,21,23,25,27,29,31,33,35,37,39,41,43,45,47,49,51,53,55,57,59,61,63,65,67,69,71,73,75,77,79,81,83,85,87,89,91,93,95,97,99,101,103,105,107,109,111,113,115,117,119,121,123,125,-1,-1,-1,-1,-1,-1,-1,-1,-1,-1,-1,-1,-1,-1,-1,-1,-1,-1,-1,-1,-1,-1,-1,-1,-1,-1,-1,-1,-1,-1,-1,-1,-1,-1,-1,-1,-1,-1,-1,-1,-1,-1,-1,-1,-1,-1,-1,-1,-1,-1,-1,-1,-1,-1,-1,-1,-1,-1,-1,-1,-1,-1,-1,-1],"loss_changes":[5.210081E10,1.3986761E10,1.946084E10,5.866018E9,1.6302367E9,8.82199E9,7.2056136E9,5.729649E9,3.9143782E8,4.8265216E8,6.024059E8,5.3007084E9,2.954287E9,7.866618E8,7.0939443E9,2.2026363E9,6.471532E9,1.0473779E8,1.4829414E8,5.671885E8,1.78176E8,1.4409221E8,2.606807E8,9.717743E8,3.4842214E9,1.8086152E9,1.3068972E9,3.6224576E7,1.2894205E8,8.89017E8,6.098178E9,3.030953E8,2.2656707E9,5.864392E8,5.653031E9,9.642624E7,6.804429E7,1.8777277E8,4.888883E7,7.371213E7,2.1437722E8,2.6141696E7,3.6950016E7,1.2602048E8,5.7573536E7,5.122711E8,7.089971E7,9.807504E7,9.936055E8,3.426775E9,3.5420163E8,1.575841E9,8.2976294E8,1.9199283E8,2.3303733E8,4.1016064E7,3.6545256E7,1.3364808E7,2.2197024E7,3.6151533E8,1.0460611E8,4.2816348E9,3.024767E9,0E0,0E0,0E0,0E0,0E0,0E0,0E0,0E0,0E0,0E0,0E0,0E0,0E0,0E0,0E0,0E0,0E0,0E0,0E0,0E0,0E0,0E0,0E0,0E0,0E0,0E0,0E0,0E0,0E0,0E0,0E0,0E0,0E0,0E0,0E0,0E0,0E0,0E0,0E0,0E0,0E0,0E0,0E0,0E0,0E0,0E0,0E0,0E0,0E0,0E0,0E0,0E0,0E0,0E0,0E0,0E0,0E0,0E0,0E0,0E0,0E0,0E0,0E0,0E0],"parents":[2147483647,0,0,1,1,2,2,3,3,4,4,5,5,6,6,7,7,8,8,9,9,10,10,11,11,12,12,13,13,14,14,15,15,16,16,17,17,18,18,19,19,20,20,21,21,22,22,23,23,24,24,25,25,26,26,27,27,28,28,29,29,30,30,31,31,32,32,33,33,34,34,35,35,36,36,37,37,38,38,39,39,40,40,41,41,42,42,43,43,44,44,45,45,46,46,47,47,48,48,49,49,50,50,51,51,52,52,53,53,54,54,55,55,56,56,57,57,58,58,59,59,60,60,61,61,62,62],"right_children":[2,4,6,8,10,12,14,16,18,20,22,24,26,28,30,32,34,36,38,40,42,44,46,48,50,52,54,56,58,60,62,64,66,68,70,72,74,76,78,80,82,84,86,88,90,92,94,96,98,100,102,104,106,108,110,112,114,116,118,120,122,124,126,-1,-1,-1,-1,-1,-1,-1,-1,-1,-1,-1,-1,-1,-1,-1,-1,-1,-1,-1,-1,-1,-1,-1,-1,-1,-1,-1,-1,-1,-1,-1,-1,-1,-1,-1,-1,-1,-1,-1,-1,-1,-1,-1,-1,-1,-1,-1,-1,-1,-1,-1,-1,-1,-1,-1,-1,-1,-1,-1,-1,-1,-1,-1,-1],"split_conditions":[4.6060864E2,1.16E0,1.2885538E3,8.4644E2,2.2291406E2,7.9765E2,1.6948E2,7.1086E2,2.5555586E2,3.21E0,3.08E0,2.10846E3,6.6183E2,1E-2,1.8081E2,5.1969E2,2.25958E3,6.4442E2,6.448E1,9.4428154E1,1.18017105E2,9.6207E2,7.9786E2,1.6948E2,1.25E0,2.18122E3,8.4663477E2,3.4238E2,2.12408E3,1E-2,7.1086E2,2.4958565E2,8.41E1,2.05331E3,2.36204E3,3.1452E2,1.59954E3,5.434E1,6.644E2,5.3655685E1,7.4774E2,6.825786E1,8.9504E2,9.0305E2,8.4644E2,7.2039E2,3.2318127E2,1.65527E3,3.21E0,2.3575E3,6.321E2,9.5131E2,4.95971E2,1E-2,1.108442E3,2.795E1,1.3477E2,1.06362E3,3.8099E2,1.3259178E3,6.8473E2,1.3504E2,7.3827E2,-3.8035275E1,-1.752998E1,-3.4741437E0,7.8688965E1,-1.4709616E1,2.3113071E1,1.8873032E2,3.6338642E1,-5.662354E1,-3.349203E1,-5.865238E1,-4.4715736E1,1.63043E1,-2.272476E1,-2.1869637E1,-3.9228745E1,-7.1290596E1,-5.7351067E1,-2.6311302E1,-5.612984E1,-7.7057556E1,-7.118508E1,-5.606663E1,-6.505984E1,-8.994052E0,6.6273895E1,-2.3642002E1,-5.0028633E1,1.6930754E1,-4.2464344E1,-5.773878E1,-4.8224358E1,-3.04699E1,-5.7880106E0,2.1789055E1,-2.2388341E0,1.17827995E2,4.7805977E1,2.1140299E1,-1.4674034E1,2.6639166E1,-1.7648222E1,1.2878963E2,2.6439484E1,-2.1116165E1,-3.3050842E1,-1.2009409E1,3.2836268E0,-1.6443666E1,-3.0764116E1,1.13047134E2,-4.27156E0,2.7788282E1,8.0634575E0,9.7603294E1,5.867325E1,8.885036E1,-3.0966043E1,1.655427E1,8.218307E1,-2.4485054E1,9.683933E1,6.638702E1,2.9096384E1],"split_indices":[7,2,7,4,7,4,6,4,7,2,2,3,6,2,4,6,3,5,1,7,7,5,6,6,2,5,7,0,5,2,4,7,1,5,3,3,3,0,3,7,6,7,5,5,4,5,7,5,2,3,4,5,7,2,7,1,6,4,4,7,3,3,6,0,0,0,0,0,0,0,0,0,0,0,0,0,0,0,0,0,0,0,0,0,0,0,0,0,0,0,0,0,0,0,0,0,0,0,0,0,0,0,0,0,0,0,0,0,0,0,0,0,0,0,0,0,0,0,0,0,0,0,0,0,0,0,0],"split_type":[0,0,0,0,0,0,0,0,0,0,0,0,0,0,0,0,0,0,0,0,0,0,0,0,0,0,0,0,0,0,0,0,0,0,0,0,0,0,0,0,0,0,0,0,0,0,0,0,0,0,0,0,0,0,0,0,0,0,0,0,0,0,0,0,0,0,0,0,0,0,0,0,0,0,0,0,0,0,0,0,0,0,0,0,0,0,0,0,0,0,0,0,0,0,0,0,0,0,0,0,0,0,0,0,0,0,0,0,0,0,0,0,0,0,0,0,0,0,0,0,0,0,0,0,0,0,0],"sum_hessian":[6.687539E6,2.520605E6,4.166934E6,1.176534E6,1.344071E6,2.681301E6,1.485633E6,7.14447E5,4.62087E5,7.75955E5,5.68116E5,1.164376E6,1.516925E6,1.36319E5,1.349314E6,4.75388E5,2.39059E5,2.84098E5,1.77989E5,2.3977E5,5.36185E5,7.4905E4,4.93211E5,7.75002E5,3.89374E5,5.61769E5,9.55156E5,1.16076E5,2.0243E4,1.0771E5,1.241604E6,2.71101E5,2.04287E5,1.51294E5,8.7765E4,1.26563E5,1.57535E5,9.8017E4,7.9972E4,1.38676E5,1.01094E5,2.74033E5,2.62152E5,3.8376E4,3.6529E4,2.07147E5,2.86064E5,6.9634E4,7.05368E5,2.88085E5,1.01289E5,3.59057E5,2.02712E5,5.58602E5,3.96554E5,1.1338E5,2.696E3,1.2368E4,7.875E3,9.7067E4,1.0643E4,4.46356E5,7.95248E5,1.63574E5,1.07527E5,1.67434E5,3.6853E4,6.3788E4,8.7506E4,4.2173E4,4.5592E4,1.9105E4,1.07458E5,4.3618E4,1.13917E5,1.2753E4,8.5264E4,1.9228E4,6.0744E4,7.7713E4,6.0963E4,6.9553E4,3.1541E4,1.42886E5,1.31147E5,5.1145E4,2.11007E5,3.6258E4,2.118E3,2.612E4,1.0409E4,1.4017E4,1.9313E5,1.26137E5,1.59927E5,4.9074E4,2.056E4,4.75693E5,2.29675E5,9.2786E4,1.95299E5,5.7542E4,4.3747E4,1.00361E5,2.58696E5,7.398E3,1.95314E5,1.78105E5,3.80497E5,2.59532E5,1.37022E5,2.2448E4,9.0932E4,2.64E2,2.432E3,6.147E3,6.221E3,1.678E3,6.197E3,2.321E3,9.4746E4,3.074E3,7.569E3,2.7926E4,4.1843E5,3.48405E5,4.46843E5],"tree_param":{"num_deleted":"0","num_feature":"8","num_nodes":"127","size_leaf_vector":"1"}},{"base_weights":[2.3714038E-5,-5.421832E1,7.34128E1,6.275191E0,-9.970272E1,1.727723E2,5.177026E1,-5.573338E1,5.9283634E1,-1.3674916E2,-5.7656746E1,1.2862192E2,7.903866E2,1.8650953E1,1.0148287E2,-9.5910034E1,-4.4166992E1,-2.238362E1,1.0762773E2,-1.6254912E2,-1.2227288E2,-5.406354E0,-7.1681114E1,6.973191E1,1.8454323E2,9.46006E2,4.1319336E2,-7.997092E1,2.7177942E1,-2.5375755E1,1.2698338E2,2.1849894E1,-1.0126075E2,-6.947605E-1,-6.2472458E1,2.6106922E1,-7.632482E1,-5.6704308E1,1.2697311E2,-1.4607433E2,-1.7558003E2,-7.861763E1,-1.3677576E2,3.055939E1,-5.595758E1,-8.9739716E1,-4.4999718E1,4.5287144E1,1.8669223E2,2.4318378E2,1.2111518E2,8.29775E2,1.6533075E3,8.214646E2,2.7734033E2,-9.9743576E1,-5.035052E0,7.1751274E1,1.0322502E1,-7.468479E1,2.2394797E2,-2.6401295E1,1.4949127E2,-3.2899223E1,2.7125002E1,-3.265002E1,-1.5934587E1,-1.051274E1,2.4235458E1,-1.2594442E1,-2.4956713E1,-1.0612813E1,7.133763E1,-2.7971392E1,3.4390533E0,-2.8081427E1,5.4365013E1,1.5755126E1,5.1944992E1,-3.8362083E1,-5.0396214E1,-5.4800976E1,-5.103388E1,-1.5856862E1,-3.7807674E1,-4.608941E1,-3.7684696E1,5.711043E1,4.104912E0,5.4307723E0,-2.4571863E1,-2.0135765E1,-3.2333565E1,-5.952982E0,-1.9933434E1,3.670349E1,8.687496E0,8.324015E1,-4.9002514E0,8.61944E1,3.967073E1,4.1799942E1,-5.1114517E1,4.220555E2,2.2355682E2,3.8833734E2,6.1159375E2,3.304595E2,1.11251755E2,5.649629E1,3.260902E2,-3.0434809E1,2.8040562E1,3.2429974E1,-8.014452E0,3.8441546E0,3.6610485E1,1.5614078E1,-6.23288E0,3.2298656E1,-2.5363636E1,5.3112553E1,1.022624E2,-1.3949094E1,9.398582E1,-2.3347809E1,5.0728786E1],"categories":[],"categories_nodes":[],"categories_segments":[],"categories_sizes":[],"default_left":[0,0,0,0,0,0,0,0,0,0,0,0,0,0,0,0,0,0,0,0,0,0,0,0,0,0,0,0,0,0,0,0,0,0,0,0,0,0,0,0,0,0,0,0,0,0,0,0,0,0,0,0,0,0,0,0,0,0,0,0,0,0,0,0,0,0,0,0,0,0,0,0,0,0,0,0,0,0,0,0,0,0,0,0,0,0,0,0,0,0,0,0,0,0,0,0,0,0,0,0,0,0,0,0,0,0,0,0,0,0,0,0,0,0,0,0,0,0,0,0,0,0,0,0,0,0,0],"id":1,"left_children":[1,3,5,7,9,11,13,15,17,19,21,23,25,27,29,31,33,35,37,39,41,43,45,47,49,51,53,55,57,59,61,63,65,67,69,71,73,75,77,79,81,83,85,87,89,91,93,95,97,99,101,103,105,107,109,111,113,115,117,119,121,123,125,-1,-1,-1,-1,-1,-1,-1,-1,-1,-1,-1,-1,-1,-1,-1,-1,-1,-1,-1,-1,-1,-1,-1,-1,-1,-1,-1,-1,-1,-1,-1,-1,-1,-1,-1,-1,-1,-1,-1,-1,-1,-1,-1,-1,-1,-1,-1,-1,-1,-1,-1,-1,-1,-1,-1,-1,-1,-1,-1,-1,-1,-1,-1,-1],"loss_changes":[2.6618548E10,1.0584073E10,6.1090417E9,5.426577E9,3.4201477E9,1.3855428E10,3.8407916E9,3.535726E8,3.51407E9,4.3593523E8,7.5363354E8,1.5617142E9,1.9894907E9,1.1773676E9,3.0173522E9,1.0717043E8,4.7014106E8,8.6568666E8,1.777406E9,9.004032E7,4.7338803E8,3.9568294E8,3.9067622E8,6.603905E8,9.0470554E8,1.9715113E9,5.49041E8,1.6508397E8,9.681508E8,1.9192563E9,2.681177E9,6.667621E7,5.930867E7,4.8993238E8,1.764768E8,2.2683853E9,2.3263142E8,5.170002E8,1.7197855E9,7.387878E7,9.048576E6,2.2771622E8,1.0556006E8,3.4295174E8,1.7386688E8,1.9730355E8,1.7656013E8,2.4039405E8,7.3590285E8,6.188022E8,6.205741E8,1.00512154E9,4.6557184E8,3.115712E8,5.35438E8,2.9063744E7,5.705857E7,1.04788544E9,1.2132937E9,2.3436294E8,1.4131546E8,6.7840723E8,3.0181212E9,0E0,0E0,0E0,0E0,0E0,0E0,0E0,0E0,0E0,0E0,0E0,0E0,0E0,0E0,0E0,0E0,0E0,0E0,0E0,0E0,0E0,0E0,0E0,0E0,0E0,0E0,0E0,0E0,0E0,0E0,0E0,0E0,0E0,0E0,0E0,0E0,0E0,0E0,0E0,0E0,0E0,0E0,0E0,0E0,0E0,0E0,0E0,0E0,0E0,0E0,0E0,0E0,0E0,0E0,0E0,0E0,0E0,0E0,0E0,0E0,0E0,0E0,0E0,0E0],"parents":[2147483647,0,0,1,1,2,2,3,3,4,4,5,5,6,6,7,7,8,8,9,9,10,10,11,11,12,12,13,13,14,14,15,15,16,16,17,17,18,18,19,19,20,20,21,21,22,22,23,23,24,24,25,25,26,26,27,27,28,28,29,29,30,30,31,31,32,32,33,33,34,34,35,35,36,36,37,37,38,38,39,39,40,40,41,41,42,42,43,43,44,44,45,45,46,46,47,47,48,48,49,49,50,50,51,51,52,52,53,53,54,54,55,55,56,56,57,57,58,58,59,59,60,60,61,61,62,62],"right_children":[2,4,6,8,10,12,14,16,18,20,22,24,26,28,30,32,34,36,38,40,42,44,46,48,50,52,54,56,58,60,62,64,66,68,70,72,74,76,78,80,82,84,86,88,90,92,94,96,98,100,102,104,106,108,110,112,114,116,118,120,122,124,126,-1,-1,-1,-1,-1,-1,-1,-1,-1,-1,-1,-1,-1,-1,-1,-1,-1,-1,-1,-1,-1,-1,-1,-1,-1,-1,-1,-1,-1,-1,-1,-1,-1,-1,-1,-1,-1,-1,-1,-1,-1,-1,-1,-1,-1,-1,-1,-1,-1,-1,-1,-1,-1,-1,-1,-1,-1,-1,-1,-1,-1,-1,-1,-1],"split_conditions":[7.8781055E2,1E-2,4.747E1,1.96927E3,3.4443018E2,4.746E1,1.455911E3,1.0241671E2,2.6097842E2,1.0619099E2,3.21E0,1.3786965E3,6.2699E2,1.5812E2,3.5247E2,1.0902E2,7.9765E2,2.37911E3,2.0464E2,3.98E0,2.96E0,8.3493E2,5.9495197E2,2.50209E3,3.844E1,2.2402112E3,1.7449E2,1E-2,7.275E2,2.7E-1,2.0464E2,6.7883725E0,1.43298E3,6.826E2,9.2593E2,2.37532E3,2.5892E2,2.53247E3,2.10846E3,8.1148E2,5.3655685E1,8.3241E2,1.919886E2,6.5412E2,6.6183E2,7.9786E2,7.9172E2,4.8857E2,2.52927E3,3.21E0,2.68094E3,5.8659E2,1.0229E2,2.3302942E3,1.52997E3,2.36408E3,6.6639E2,1.48523E3,7.3827E2,1.311E1,2.49974E3,2.4818E3,1.157E2,-3.2899223E1,2.7125002E1,-3.265002E1,-1.5934587E1,-1.051274E1,2.4235458E1,-1.2594442E1,-2.4956713E1,-1.0612813E1,7.133763E1,-2.7971392E1,3.4390533E0,-2.8081427E1,5.4365013E1,1.5755126E1,5.1944992E1,-3.8362083E1,-5.0396214E1,-5.4800976E1,-5.103388E1,-1.5856862E1,-3.7807674E1,-4.608941E1,-3.7684696E1,5.711043E1,4.104912E0,5.4307723E0,-2.4571863E1,-2.0135765E1,-3.2333565E1,-5.952982E0,-1.9933434E1,3.670349E1,8.687496E0,8.324015E1,-4.9002514E0,8.61944E1,3.967073E1,4.1799942E1,-5.1114517E1,4.220555E2,2.2355682E2,3.8833734E2,6.1159375E2,3.304595E2,1.11251755E2,5.649629E1,3.260902E2,-3.0434809E1,2.8040562E1,3.2429974E1,-8.014452E0,3.8441546E0,3.6610485E1,1.5614078E1,-6.23288E0,3.2298656E1,-2.5363636E1,5.3112553E1,1.022624E2,-1.3949094E1,9.398582E1,-2.3347809E1,5.0728786E1],"split_indices":[7,2,0,3,7,0,7,7,7,7,2,7,4,6,4,3,4,3,6,2,2,4,7,3,1,7,5,2,4,2,6,7,4,4,3,5,0,5,3,4,7,4,7,3,6,6,6,4,3,2,3,6,5,7,6,5,4,5,6,1,5,5,5,0,0,0,0,0,0,0,0,0,0,0,0,0,0,0,0,0,0,0,0,0,0,0,0,0,0,0,0,0,0,0,0,0,0,0,0,0,0,0,0,0,0,0,0,0,0,0,0,0,0,0,0,0,0,0,0,0,0,0,0,0,0,0,0],"split_type":[0,0,0,0,0,0,0,0,0,0,0,0,0,0,0,0,0,0,0,0,0,0,0,0,0,0,0,0,0,0,0,0,0,0,0,0,0,0,0,0,0,0,0,0,0,0,0,0,0,0,0,0,0,0,0,0,0,0,0,0,0,0,0,0,0,0,0,0,0,0,0,0,0,0,0,0,0,0,0,0,0,0,0,0,0,0,0,0,0,0,0,0,0,0,0,0,0,0,0,0,0,0,0,0,0,0,0,0,0,0,0,0,0,0,0,0,0,0,0,0,0,0,0,0,0,0,0],"sum_hessian":[6.687539E6,3.846639E6,2.8409E6,1.65093E6,2.195709E6,5.08125E5,2.332775E6,7.60872E5,8.90058E5,1.16725E6,1.028459E6,4.74226E5,3.3899E4,1.400045E6,9.3273E5,1.7008E5,5.90792E5,3.30964E5,5.59094E5,4.19535E5,7.47715E5,2.17632E5,8.10827E5,2.30983E5,2.43243E5,2.3997E4,9.902E3,1.11416E5,1.288629E6,1.56112E5,7.76618E5,7.392E3,1.62688E5,1.75059E5,4.15733E5,1.74288E5,1.56676E5,5.8885E4,5.00209E5,1.85289E5,2.34246E5,1.86459E5,5.61256E5,1.27161E5,9.0471E4,4.83548E5,3.27279E5,1.91054E5,3.9929E4,1.2639E5,1.16853E5,2.0612E4,3.385E3,2.471E3,7.431E3,8.8155E4,2.3261E4,3.53586E5,9.35043E5,1.30336E5,2.5776E4,9.9379E4,6.77239E5,2.533E3,4.859E3,1.40576E5,2.2112E4,1.23147E5,5.1912E4,2.09006E5,2.06727E5,1.35061E5,3.9227E4,1.31367E5,2.5309E4,5.0979E4,7.906E3,1.91475E5,3.08734E5,1.01222E5,8.4067E4,1.01973E5,1.32273E5,1.20812E5,6.5647E4,2.23572E5,3.37684E5,1.2145E4,1.15016E5,2.3474E4,6.6997E4,2.14532E5,2.69016E5,1.50608E5,1.76671E5,3.3405E4,1.57649E5,2.7592E4,1.2337E4,9.0422E4,3.5968E4,1.0998E5,6.873E3,2.633E3,1.7979E4,1.755E3,1.63E3,1.523E3,9.48E2,6.696E3,7.35E2,8.7384E4,7.71E2,3.74E3,1.9521E4,1.62786E5,1.908E5,3.99305E5,5.35738E5,6.686E3,1.2365E5,1.8398E4,7.378E3,9.3829E4,5.55E3,5.377E4,6.23469E5],"tree_param":{"num_deleted":"0","num_feature":"8","num_nodes":"127","size_leaf_vector":"1"}},{"base_weights":[4.2489087E-4,-2.8563356E1,7.180922E1,-6.98252E1,-8.845572E-1,-2.597955E1,8.586345E1,-3.155331E1,-9.6968544E1,2.948272E1,-3.8170338E1,-5.985908E1,8.336416E1,-3.28505E1,9.57995E1,-4.4328485E0,-7.329743E1,-1.1909926E2,-8.868281E1,-3.3282878E0,9.730821E1,-6.0109993E1,-1.6445116E1,-6.3625618E1,5.0902277E2,4.8763096E1,1.501969E2,-5.3970966E1,1.2793166E2,1.533554E2,6.485817E1,-6.141285E1,3.4755585E1,-7.760584E1,-2.2747595E1,-8.181143E1,-1.2096214E2,-6.132049E1,-1.01725334E2,3.3121475E1,-2.191084E1,1.27174805E2,-2.121318E1,-2.861576E1,-6.958635E1,-3.0954157E1,1.20019E1,-4.2858604E1,-1.19617516E2,2.8799173E2,1.493311E3,1.2984633E2,2.4215961E1,2.1943797E2,8.506245E1,-2.54569E1,-8.534857E1,7.897089E0,1.6068631E2,-1.2895126E2,1.6679765E2,1.25898094E2,3.0751265E1,-2.0157976E1,4.9030018E1,-6.740209E0,2.8111383E1,-1.8471674E1,-2.7166233E1,5.2212706E0,-2.2635046E1,-2.6122995E1,1.8270794E1,-3.865088E1,-3.4472473E1,-4.4685397E0,-2.6580765E1,-3.5286556E1,-2.685879E1,-1.7398487E1,2.2608477E1,-2.649501E0,-1.6162766E1,1.9059258E1,6.421788E1,-9.407941E0,1.8640562E2,3.285879E1,-1.7918633E1,-2.8096016E1,-1.3313081E1,-1.4233031E0,-1.4893915E1,9.294725E0,-8.965751E0,-1.6859264E1,3.0909735E1,7.516779E1,-3.933318E1,1.5717552E2,6.291142E1,4.708461E2,1.2641672E1,1.4822714E0,4.5522675E1,3.8846817E1,3.078314E0,4.7399952E1,8.1385735E1,2.8146769E1,-2.4496946E1,-1.3260096E1,3.591151E1,-5.1908077E1,-1.9773361E1,3.850685E1,-1.7994993E0,5.3453594E1,-1.0550781E1,-4.1037086E1,3.5837124E1,4.5720215E1,1.2126271E2,1.0908499E1,5.7836582E1,1.0974849E1,-3.5360596E1],"categories":[],"categories_nodes":[],"categories_segments":[],"categories_sizes":[],"default_left":[0,0,0,0,0,0,0,0,0,0,0,0,0,0,0,0,0,0,0,0,0,0,0,0,0,0,0,0,0,0,0,0,0,0,0,0,0,0,0,0,0,0,0,0,0,0,0,0,0,0,0,0,0,0,0,0,0,0,0,0,0,0,0,0,0,0,0,0,0,0,0,0,0,0,0,0,0,0,0,0,0,0,0,0,0,0,0,0,0,0,0,0,0,0,0,0,0,0,0,0,0,0,0,0,0,0,0,0,0,0,0,0,0,0,0,0,0,0,0,0,0,0,0,0,0,0,0],"id":2,"left_children":[1,3,5,7,9,11,13,15,17,19,21,23,25,27,29,31,33,35,37,39,41,43,45,47,49,51,53,55,57,59,61,63,65,67,69,71,73,75,77,79,81,83,85,87,89,91,93,95,97,99,101,103,105,107,109,111,113,115,117,119,121,123,125,-1,-1,-1,-1,-1,-1,-1,-1,-1,-1,-1,-1,-1,-1,-1,-1,-1,-1,-1,-1,-1,-1,-1,-1,-1,-1,-1,-1,-1,-1,-1,-1,-1,-1,-1,-1,-1,-1,-1,-1,-1,-1,-1,-1,-1,-1,-1,-1,-1,-1,-1,-1,-1,-1,-1,-1,-1,-1,-1,-1,-1,-1,-1,-1],"loss_changes":[1.3717019E10,5.4641787E9,2.615553E9,1.9954616E9,3.2422892E9,8.85932E8,1.9627438E9,9.02357E8,2.0606566E8,3.5121341E9,6.126528E8,3.9124512E8,1.3081222E8,4.3641747E8,2.7344271E9,1.0788664E9,6.836173E7,2.125568E7,2.9180774E8,7.204382E8,1.8214011E9,1.9086285E8,2.6656038E8,2.1089843E8,2.6085738E8,7.4187576E7,8.701043E7,1.0163072E8,5.866741E7,2.0372603E9,2.079006E9,2.5590298E8,9.6566195E8,6.004365E7,5.2171744E7,1.0953496E7,1.3883904E7,3.3431347E8,1.0734643E8,1.3823163E9,2.945292E8,2.272579E9,6.7524934E8,6.3578285E8,2.982569E8,2.0953498E8,1.7343331E8,2.5748147E8,2.088041E8,1.8027672E7,2.4253632E7,2.368912E7,4.2034972E7,2.9750496E7,1.4532088E7,1.619328E8,9.215546E7,5.357024E6,4.0168896E7,4.753187E7,1.7514711E9,2.1439304E9,5.552468E8,0E0,0E0,0E0,0E0,0E0,0E0,0E0,0E0,0E0,0E0,0E0,0E0,0E0,0E0,0E0,0E0,0E0,0E0,0E0,0E0,0E0,0E0,0E0,0E0,0E0,0E0,0E0,0E0,0E0,0E0,0E0,0E0,0E0,0E0,0E0,0E0,0E0,0E0,0E0,0E0,0E0,0E0,0E0,0E0,0E0,0E0,0E0,0E0,0E0,0E0,0E0,0E0,0E0,0E0,0E0,0E0,0E0,0E0,0E0,0E0,0E0,0E0,0E0,0E0],"parents":[2147483647,0,0,1,1,2,2,3,3,4,4,5,5,6,6,7,7,8,8,9,9,10,10,11,11,12,12,13,13,14,14,15,15,16,16,17,17,18,18,19,19,20,20,21,21,22,22,23,23,24,24,25,25,26,26,27,27,28,28,29,29,30,30,31,31,32,32,33,33,34,34,35,35,36,36,37,37,38,38,39,39,40,40,41,41,42,42,43,43,44,44,45,45,46,46,47,47,48,48,49,49,50,50,51,51,52,52,53,53,54,54,55,55,56,56,57,57,58,58,59,59,60,60,61,61,62,62],"right_children":[2,4,6,8,10,12,14,16,18,20,22,24,26,28,30,32,34,36,38,40,42,44,46,48,50,52,54,56,58,60,62,64,66,68,70,72,74,76,78,80,82,84,86,88,90,92,94,96,98,100,102,104,106,108,110,112,114,116,118,120,122,124,126,-1,-1,-1,-1,-1,-1,-1,-1,-1,-1,-1,-1,-1,-1,-1,-1,-1,-1,-1,-1,-1,-1,-1,-1,-1,-1,-1,-1,-1,-1,-1,-1,-1,-1,-1,-1,-1,-1,-1,-1,-1,-1,-1,-1,-1,-1,-1,-1,-1,-1,-1,-1,-1,-1,-1,-1,-1,-1,-1,-1,-1,-1,-1,-1],"split_conditions":[1.108442E3,3.2863702E2,2.184E2,1E-2,2.88E0,1E-2,1.8081E2,8.4644E2,7.91338E1,2.18122E3,6.596773E2,2.54256E3,2.31256E3,1E-2,7.0738E2,5.1969E2,1.49956E3,7.7E-1,9.6207E2,6.7751E2,8.4644E2,8.9504E2,2.02925E3,2.08802E3,2.7766E2,7.7576E2,9.6949E2,5.046E1,6.8473E2,7.529E1,6.6183E2,7.5139E2,2.11523E3,6.7215E2,1.48083E3,1.44427E3,3.8521168E1,6.8336E2,1.95464E3,5.3533E2,1.19859E3,2.27197E3,2.0501E2,6.6696E2,2.05331E3,9.5131E2,9.713E2,1.6948E2,1.045E1,8.6658E2,2.7833E2,6.8082E2,8.835E2,2.4818E3,2.61515E3,6.0395E2,1.3259178E3,1.2659482E3,1.41698E3,6.3948E2,1.1287E2,2.15154E3,1.45052E3,-2.0157976E1,4.9030018E1,-6.740209E0,2.8111383E1,-1.8471674E1,-2.7166233E1,5.2212706E0,-2.2635046E1,-2.6122995E1,1.8270794E1,-3.865088E1,-3.4472473E1,-4.4685397E0,-2.6580765E1,-3.5286556E1,-2.685879E1,-1.7398487E1,2.2608477E1,-2.649501E0,-1.6162766E1,1.9059258E1,6.421788E1,-9.407941E0,1.8640562E2,3.285879E1,-1.7918633E1,-2.8096016E1,-1.3313081E1,-1.4233031E0,-1.4893915E1,9.294725E0,-8.965751E0,-1.6859264E1,3.0909735E1,7.516779E1,-3.933318E1,1.5717552E2,6.291142E1,4.708461E2,1.2641672E1,1.4822714E0,4.5522675E1,3.8846817E1,3.078314E0,4.7399952E1,8.1385735E1,2.8146769E1,-2.4496946E1,-1.3260096E1,3.591151E1,-5.1908077E1,-1.9773361E1,3.850685E1,-1.7994993E0,5.3453594E1,-1.0550781E1,-4.1037086E1,3.5837124E1,4.5720215E1,1.2126271E2,1.0908499E1,5.7836582E1,1.0974849E1,-3.5360596E1],"split_indices":[7,7,6,2,2,2,4,4,7,5,7,5,5,2,4,6,6,2,5,4,4,5,5,5,0,4,3,1,3,3,6,4,3,3,4,6,7,6,5,6,6,3,1,6,5,5,6,6,0,4,0,5,5,5,5,3,7,7,6,4,1,5,4,0,0,0,0,0,0,0,0,0,0,0,0,0,0,0,0,0,0,0,0,0,0,0,0,0,0,0,0,0,0,0,0,0,0,0,0,0,0,0,0,0,0,0,0,0,0,0,0,0,0,0,0,0,0,0,0,0,0,0,0,0,0,0,0],"split_type":[0,0,0,0,0,0,0,0,0,0,0,0,0,0,0,0,0,0,0,0,0,0,0,0,0,0,0,0,0,0,0,0,0,0,0,0,0,0,0,0,0,0,0,0,0,0,0,0,0,0,0,0,0,0,0,0,0,0,0,0,0,0,0,0,0,0,0,0,0,0,0,0,0,0,0,0,0,0,0,0,0,0,0,0,0,0,0,0,0,0,0,0,0,0,0,0,0,0,0,0,0,0,0,0,0,0,0,0,0,0,0,0,0,0,0,0,0,0,0,0,0,0,0,0,0,0,0],"sum_hessian":[6.687539E6,4.784416E6,1.903123E6,1.920882E6,2.863534E6,2.39147E5,1.663976E6,7.9705E5,1.123832E6,1.578186E6,1.285348E6,1.82577E5,5.657E4,1.28514E5,1.535462E6,4.83154E5,3.13896E5,3.06139E5,8.17693E5,1.063643E6,5.14543E5,6.39517E5,6.45831E5,1.81377E5,1.2E3,3.7274E4,1.9296E4,1.13593E5,1.4921E4,5.36843E5,9.98619E5,1.96884E5,2.8627E5,2.89243E5,2.4653E4,1.4569E4,2.9157E5,2.6395E5,5.53743E5,3.59156E5,7.04487E5,4.10979E5,1.03564E5,1.47919E5,4.91598E5,4.27692E5,2.18139E5,1.32307E5,4.907E4,9.81E2,2.19E2,8.661E3,2.8613E4,9.352E3,9.944E3,5.9513E4,5.408E4,3.199E3,1.1722E4,2.44E4,5.12443E5,3.5797E5,6.40649E5,1.9195E5,4.934E3,1.45262E5,1.41008E5,1.29228E5,1.60015E5,1.3993E4,1.066E4,1.4051E4,5.18E2,1.26724E5,1.64846E5,9.7699E4,1.66251E5,2.40397E5,3.13346E5,1.13761E5,2.45395E5,4.99931E5,2.04556E5,2.37217E5,1.73762E5,1.01955E5,1.609E3,2.719E4,1.20729E5,2.51496E5,2.40102E5,1.78044E5,2.49648E5,1.50117E5,6.8022E4,1.21224E5,1.1083E4,1.477E3,4.7593E4,2.43E2,7.38E2,2.08E2,1.1E1,1.292E3,7.369E3,3.348E3,2.5265E4,4.282E3,5.07E3,9.448E3,4.96E2,5.2708E4,6.805E3,9.812E3,4.4268E4,3.3E2,2.869E3,1.0761E4,9.61E2,2.3654E4,7.46E2,4.83146E5,2.9297E4,1.53074E5,2.04896E5,6.16461E5,2.4188E4],"tree_param":{"num_deleted":"0","num_feature":"8","num_nodes":"127","size_leaf_vector":"1"}},{"base_weights":[4.800168E-4,-2.3370619E1,4.4766388E1,5.697738E0,-4.506594E1,-2.3985384E1,5.4628906E1,-2.5038645E1,4.007546E1,-6.139862E1,-1.7256208E1,-4.785793E1,4.7649178E1,3.7495438E1,1.0703229E2,1.7006361E1,-3.2313686E1,8.557474E1,-3.6711628E1,-7.711284E1,-5.009316E1,5.6420235E1,-2.0640282E1,-5.209872E1,2.180097E2,2.0471386E1,9.3502815E1,5.989849E1,4.842131E0,-5.6972492E1,1.2924138E2,-6.9293504E0,4.3000952E2,-1.17155975E2,-3.0540672E1,2.4531893E1,2.5400662E2,1.2058322E2,-4.3511654E1,-6.4426346E1,-8.6682365E1,-1.5020748E1,-5.7706345E1,1.5440816E2,1.1605476E1,-3.185615E1,2.9479572E-1,-3.7962547E1,-1.2469688E2,1.6003534E2,9.180086E2,7.9303764E1,7.840759E-1,6.681862E1,1.525588E2,6.8326935E1,-8.391007E1,3.9707256E1,-1.4459945E1,-1.368778E2,2.2225273E2,1.0353135E1,1.590107E2,2.8582003E1,-7.930689E0,3.8345465E2,7.180734E1,-3.8279503E1,-1.2888972E1,-5.352573E0,-1.3083981E1,-1.4756917E1,1.7399939E1,4.8307724E1,1.351547E2,7.423905E1,-1.0197183E1,-1.7394423E1,2.9601727E0,-1.56505785E1,-2.4325075E1,-2.6148712E1,-1.5404212E1,3.1557909E1,-1.0999139E1,-1.3738534E1,-2.133067E1,6.425598E1,2.0965254E1,4.0304634E1,-7.1917496E0,3.920267E-1,-1.2993046E1,4.141217E0,-9.5458765E0,-1.3227669E1,3.68605E1,4.5493923E1,-4.2317535E1,-3.0224068E0,5.8175365E1,3.283554E2,4.1760807E1,3.4705193E1,1.1645024E1,4.8894867E1,-3.5858493E0,3.5560978E1,1.2224883E1,6.3397465E1,2.5696716E1,1.1451713E1,3.1542912E1,6.411559E-1,-5.0195606E1,5.3249645E1,8.148218E0,1.5840881E1,-6.7402186E0,-5.718523E1,-8.116779E0,4.4288986E1,1.7210956E2,-2.0407276E1,2.117532E1,6.098289E1,2.2635462E1],"categories":[],"categories_nodes":[],"categories_segments":[],"categories_sizes":[],"default_left":[0,0,0,0,0,0,0,0,0,0,0,0,0,0,0,0,0,0,0,0,0,0,0,0,0,0,0,0,0,0,0,0,0,0,0,0,0,0,0,0,0,0,0,0,0,0,0,0,0,0,0,0,0,0,0,0,0,0,0,0,0,0,0,0,0,0,0,0,0,0,0,0,0,0,0,0,0,0,0,0,0,0,0,0,0,0,0,0,0,0,0,0,0,0,0,0,0,0,0,0,0,0,0,0,0,0,0,0,0,0,0,0,0,0,0,0,0,0,0,0,0,0,0,0,0,0,0],"id":3,"left_children":[1,3,5,7,9,11,13,15,17,19,21,23,25,27,29,31,33,35,37,39,41,43,45,47,49,51,53,55,57,59,61,63,65,67,69,71,73,75,77,79,81,83,85,87,89,91,93,95,97,99,101,103,105,107,109,111,113,115,117,119,121,123,125,-1,-1,-1,-1,-1,-1,-1,-1,-1,-1,-1,-1,-1,-1,-1,-1,-1,-1,-1,-1,-1,-1,-1,-1,-1,-1,-1,-1,-1,-1,-1,-1,-1,-1,-1,-1,-1,-1,-1,-1,-1,-1,-1,-1,-1,-1,-1,-1,-1,-1,-1,-1,-1,-1,-1,-1,-1,-1,-1,-1,-1,-1,-1,-1],"loss_changes":[6.996696E9,2.7708787E9,1.5553741E9,1.984148E9,1.1427523E9,4.921227E8,1.8011448E9,3.032473E8,3.0968138E9,2.815877E8,2.320977E8,2.4337203E8,8.963856E7,1.1059209E9,1.8003784E9,1.4456424E9,1.2713056E8,5.722567E9,3.5276118E8,8.05097E7,2.4614067E8,1.7951475E8,2.089801E8,2.1802938E8,1.3738542E8,5.23112E7,4.2172496E7,1.0867855E9,4.1398637E8,1.3153426E9,1.5407314E9,2.7557302E8,1.2951177E9,1.3397664E7,1.3742842E8,1.0079695E9,2.7051817E9,2.6805069E8,2.4417523E8,5.822067E7,6.407424E6,4.2777757E8,1.2085171E8,6.480627E7,1.2250513E8,2.201344E8,1.3470086E8,1.7531776E8,1.5657958E8,1.804828E7,3.545147E7,1.6674936E7,6.991443E7,2.4855304E7,3.2732384E7,9.402926E8,3.562779E8,3.7896493E8,2.1326416E8,2.7050906E8,3.4391987E8,4.11552E8,1.2877353E9,0E0,0E0,0E0,0E0,0E0,0E0,0E0,0E0,0E0,0E0,0E0,0E0,0E0,0E0,0E0,0E0,0E0,0E0,0E0,0E0,0E0,0E0,0E0,0E0,0E0,0E0,0E0,0E0,0E0,0E0,0E0,0E0,0E0,0E0,0E0,0E0,0E0,0E0,0E0,0E0,0E0,0E0,0E0,0E0,0E0,0E0,0E0,0E0,0E0,0E0,0E0,0E0,0E0,0E0,0E0,0E0,0E0,0E0,0E0,0E0,0E0,0E0,0E0,0E0],"parents":[2147483647,0,0,1,1,2,2,3,3,4,4,5,5,6,6,7,7,8,8,9,9,10,10,11,11,12,12,13,13,14,14,15,15,16,16,17,17,18,18,19,19,20,20,21,21,22,22,23,23,24,24,25,25,26,26,27,27,28,28,29,29,30,30,31,31,32,32,33,33,34,34,35,35,36,36,37,37,38,38,39,39,40,40,41,41,42,42,43,43,44,44,45,45,46,46,47,47,48,48,49,49,50,50,51,51,52,52,53,53,54,54,55,55,56,56,57,57,58,58,59,59,60,60,61,61,62,62],"right_children":[2,4,6,8,10,12,14,16,18,20,22,24,26,28,30,32,34,36,38,40,42,44,46,48,50,52,54,56,58,60,62,64,66,68,70,72,74,76,78,80,82,84,86,88,90,92,94,96,98,100,102,104,106,108,110,112,114,116,118,120,122,124,126,-1,-1,-1,-1,-1,-1,-1,-1,-1,-1,-1,-1,-1,-1,-1,-1,-1,-1,-1,-1,-1,-1,-1,-1,-1,-1,-1,-1,-1,-1,-1,-1,-1,-1,-1,-1,-1,-1,-1,-1,-1,-1,-1,-1,-1,-1,-1,-1,-1,-1,-1,-1,-1,-1,-1,-1,-1,-1,-1,-1,-1,-1,-1,-1],"split_conditions":[9.671981E2,1E-2,2.184E2,2.02925E3,5.1385156E2,1E-2,1.8416304E3,4.747E1,2.37338E3,1.6930214E2,5.9487E2,2.47204E3,1.4722495E3,3.49E0,1.157E2,4.746E1,7.867E1,2.27197E3,2.09541E3,4.72E0,5.9714E2,6.6183E2,2.02925E3,1.9011E2,2.7766E2,7.7455E2,2.47204E3,1.37196E3,7.3023E2,1.28147E3,4.2584E2,5.9536E2,4.8945734E2,1.27166E3,4.859E1,7.3231E2,2.50925E3,6.4798E2,2.5255E2,8.2884E2,1.49956E3,6.1901E2,8.4954E2,9.3723E2,7.7928E2,7.4945E2,1.02245E3,1.6948E2,9.6207E2,9.99E0,2.7833E2,1.01652E3,8.835E2,8.8528E2,8.3923E2,1.63165E3,1.4223358E3,6.3541E2,4.9408E2,7.112E2,1.1287E2,9.595E2,1.17935E3,2.8582003E1,-7.930689E0,3.8345465E2,7.180734E1,-3.8279503E1,-1.2888972E1,-5.352573E0,-1.3083981E1,-1.4756917E1,1.7399939E1,4.8307724E1,1.351547E2,7.423905E1,-1.0197183E1,-1.7394423E1,2.9601727E0,-1.56505785E1,-2.4325075E1,-2.6148712E1,-1.5404212E1,3.1557909E1,-1.0999139E1,-1.3738534E1,-2.133067E1,6.425598E1,2.0965254E1,4.0304634E1,-7.1917496E0,3.920267E-1,-1.2993046E1,4.141217E0,-9.5458765E0,-1.3227669E1,3.68605E1,4.5493923E1,-4.2317535E1,-3.0224068E0,5.8175365E1,3.283554E2,4.1760807E1,3.4705193E1,1.1645024E1,4.8894867E1,-3.5858493E0,3.5560978E1,1.2224883E1,6.3397465E1,2.5696716E1,1.1451713E1,3.1542912E1,6.411559E-1,-5.0195606E1,5.3249645E1,8.148218E0,1.5840881E1,-6.7402186E0,-5.718523E1,-8.116779E0,4.4288986E1,1.7210956E2,-2.0407276E1,2.117532E1,6.098289E1,2.2635462E1],"split_indices":[7,2,6,5,7,2,7,0,3,7,3,5,7,2,5,0,5,3,5,2,5,6,5,6,0,4,5,4,6,6,4,4,7,6,1,4,5,4,0,4,6,6,6,5,4,4,6,6,5,0,0,3,5,4,3,5,7,5,4,6,1,6,6,0,0,0,0,0,0,0,0,0,0,0,0,0,0,0,0,0,0,0,0,0,0,0,0,0,0,0,0,0,0,0,0,0,0,0,0,0,0,0,0,0,0,0,0,0,0,0,0,0,0,0,0,0,0,0,0,0,0,0,0,0,0,0,0],"split_type":[0,0,0,0,0,0,0,0,0,0,0,0,0,0,0,0,0,0,0,0,0,0,0,0,0,0,0,0,0,0,0,0,0,0,0,0,0,0,0,0,0,0,0,0,0,0,0,0,0,0,0,0,0,0,0,0,0,0,0,0,0,0,0,0,0,0,0,0,0,0,0,0,0,0,0,0,0,0,0,0,0,0,0,0,0,0,0,0,0,0,0,0,0,0,0,0,0,0,0,0,0,0,0,0,0,0,0,0,0,0,0,0,0,0,0,0,0,0,0,0,0,0,0,0,0,0,0],"sum_hessian":[6.687539E6,4.393703E6,2.293836E6,1.877776E6,2.515927E6,2.87772E5,2.006064E6,9.91393E5,8.86383E5,1.585034E6,9.30893E5,2.15842E5,7.193E4,1.511783E6,4.94281E5,1.46237E5,8.45156E5,5.56585E5,3.29798E5,6.63201E5,9.21833E5,4.0879E4,8.90014E5,2.12454E5,3.388E3,4.5163E4,2.6767E4,8.96621E5,6.15162E5,5.8951E4,4.3533E5,1.38227E5,8.01E3,1.7299E4,8.27857E5,4.08528E5,1.48057E5,1.3666E4,3.16132E5,2.85163E5,3.78038E5,1.64414E5,7.57419E5,1.2828E4,2.8051E4,5.79532E5,3.10482E5,1.77829E5,3.4625E4,3.13E3,2.58E2,1.1323E4,3.384E4,1.8438E4,8.329E3,8.46981E5,4.964E4,2.19208E5,3.95954E5,4.5835E4,1.3116E4,8.7177E4,3.48153E5,2.2153E4,1.16074E5,1.469E3,6.541E3,1.5164E4,2.135E3,4.19934E5,4.07923E5,1.27555E5,2.80973E5,1.00504E5,4.7553E4,7.505E3,6.161E3,2.48712E5,6.742E4,1.64278E5,1.20885E5,3.7297E5,5.068E3,2.5084E4,1.3933E5,4.00929E5,3.5649E5,7.513E3,5.315E3,6.303E3,2.1748E4,1.48777E5,4.30755E5,2.18548E5,9.1934E4,1.71301E5,6.528E3,1.935E3,3.269E4,5.2E2,2.61E3,2.1E2,4.8E1,5.963E3,5.36E3,2.463E3,3.1377E4,6.178E3,1.226E4,4.433E3,3.896E3,4.65616E5,3.81365E5,2.4434E4,2.5206E4,1.8293E4,2.00915E5,4.2122E4,3.53832E5,3.0775E4,1.506E4,1.082E4,2.296E3,3.7882E4,4.9295E4,2.27587E5,1.20566E5],"tree_param":{"num_deleted":"0","num_feature":"8","num_nodes":"127","size_leaf_vector":"1"}},{"base_weights":[5.7865574E-4,-3.5406322E1,1.6244999E1,-2.0893568E1,-5.0380474E1,5.1115403E0,5.2858536E1,-6.1961243E1,-9.340883E0,-5.4876514E1,-3.5770218E1,-8.571081E0,2.6652384E1,-2.586195E1,6.7946045E1,-5.700665E1,-1.390812E2,1.149166E1,-3.9839092E1,-4.4547916E1,-5.9110744E1,-6.3498493E1,-2.9571632E1,2.083175E0,-2.794292E1,5.0131756E1,-1.1062288E1,-5.2621803E1,9.192745E1,9.057464E1,-1.1668105E0,3.98863E1,-6.0502724E1,-1.7056897E2,-3.8417255E1,-4.273966E1,4.633392E1,-2.9720125E1,-8.661613E1,-6.658658E1,-2.8137732E1,-6.6673775E1,-5.589996E1,1.357045E1,-6.915311E1,1.068263E1,-4.0499306E1,-2.3651892E1,1.290263E1,-3.5127407E1,-6.603347E0,6.438958E1,-6.0584316E1,8.921515E0,-2.7292645E1,-2.1140302E2,-4.102954E1,5.8228554E1,1.6900218E2,-1.0359372E2,9.935283E1,1.3485574E1,-1.3657788E2,5.718396E1,-1.624797E-1,-2.0782354E1,-1.1569814E1,-6.264416E1,-1.9094007E1,-5.496136E1,-3.7354198E0,-5.6095247E0,-1.7769905E1,2.9074995E1,7.586702E-1,3.0610758E1,-1.0627857E1,-2.3148357E1,-9.433827E1,-2.3791367E1,-1.8457558E1,-1.491677E1,-1.406393E0,-8.702824E0,-2.088455E1,-1.1889493E1,-1.9112986E1,2.4322676E1,-2.3078911E0,-2.7331938E1,-1.7120577E1,9.582708E1,9.91611E-1,-5.419032E0,-1.3346193E1,2.580574E0,-1.6395458E1,-7.537598E0,7.6007714E0,-5.678158E0,-1.3618935E1,1.5139408E0,-2.1053265E1,9.593547E0,3.4656166E1,-4.3775272E1,-9.922947E0,-2.9187517E0,9.602517E0,1.3414306E1,-9.5730915E0,-5.483444E1,-9.761235E1,-5.428854E0,-3.2123943E1,2.923881E1,1.9819345E-3,1.439418E2,3.6987915E1,-3.5302242E1,2.0406572E1,3.7904938E1,8.672253E0,-3.385137E1,6.8293395E0,-4.9338596E1,2.94634E1],"categories":[],"categories_nodes":[],"categories_segments":[],"categories_sizes":[],"default_left":[0,0,0,0,0,0,0,0,0,0,0,0,0,0,0,0,0,0,0,0,0,0,0,0,0,0,0,0,0,0,0,0,0,0,0,0,0,0,0,0,0,0,0,0,0,0,0,0,0,0,0,0,0,0,0,0,0,0,0,0,0,0,0,0,0,0,0,0,0,0,0,0,0,0,0,0,0,0,0,0,0,0,0,0,0,0,0,0,0,0,0,0,0,0,0,0,0,0,0,0,0,0,0,0,0,0,0,0,0,0,0,0,0,0,0,0,0,0,0,0,0,0,0,0,0,0,0],"id":4,"left_children":[1,3,5,7,9,11,13,15,17,19,21,23,25,27,29,31,33,35,37,39,41,43,45,47,49,51,53,55,57,59,61,63,65,67,69,71,73,75,77,79,81,83,85,87,89,91,93,95,97,99,101,103,105,107,109,111,113,115,117,119,121,123,125,-1,-1,-1,-1,-1,-1,-1,-1,-1,-1,-1,-1,-1,-1,-1,-1,-1,-1,-1,-1,-1,-1,-1,-1,-1,-1,-1,-1,-1,-1,-1,-1,-1,-1,-1,-1,-1,-1,-1,-1,-1,-1,-1,-1,-1,-1,-1,-1,-1,-1,-1,-1,-1,-1,-1,-1,-1,-1,-1,-1,-1,-1,-1,-1],"loss_changes":[3.8464369E9,4.5706752E8,1.8687217E9,5.0674035E8,6.799616E7,1.036098E9,1.2695885E9,8.959187E7,5.2962317E8,3.461581E7,4.186627E7,4.437042E8,1.2092137E9,5.41914E8,1.4028828E9,7.464147E7,4.486032E7,9.358466E8,1.6013146E8,8.32367E7,1.3629184E7,1.9396E7,8.757766E7,3.8619158E8,1.1695117E8,1.3285336E9,1.6993816E8,2.5785846E8,8.265805E7,1.1518228E9,4.3899875E8,4.676217E7,4.091955E7,4.40768E7,1.2682358E7,7.681843E7,6.68152E8,2.0911373E8,1.2959312E8,6.318368E6,6.6775824E7,1.853312E7,5.007104E7,4.368516E6,1.0994768E7,9.681781E7,1.400944E7,4.1046333E8,4.6168445E8,9.493894E7,1.4230232E8,1.2355927E9,2.2537674E8,1.0111053E8,9.613627E7,3.1034336E7,1.977735E8,5.059013E7,1.3748886E8,7.063994E7,1.229592E9,2.340265E8,1.4145507E8,0E0,0E0,0E0,0E0,0E0,0E0,0E0,0E0,0E0,0E0,0E0,0E0,0E0,0E0,0E0,0E0,0E0,0E0,0E0,0E0,0E0,0E0,0E0,0E0,0E0,0E0,0E0,0E0,0E0,0E0,0E0,0E0,0E0,0E0,0E0,0E0,0E0,0E0,0E0,0E0,0E0,0E0,0E0,0E0,0E0,0E0,0E0,0E0,0E0,0E0,0E0,0E0,0E0,0E0,0E0,0E0,0E0,0E0,0E0,0E0,0E0,0E0,0E0,0E0],"parents":[2147483647,0,0,1,1,2,2,3,3,4,4,5,5,6,6,7,7,8,8,9,9,10,10,11,11,12,12,13,13,14,14,15,15,16,16,17,17,18,18,19,19,20,20,21,21,22,22,23,23,24,24,25,25,26,26,27,27,28,28,29,29,30,30,31,31,32,32,33,33,34,34,35,35,36,36,37,37,38,38,39,39,40,40,41,41,42,42,43,43,44,44,45,45,46,46,47,47,48,48,49,49,50,50,51,51,52,52,53,53,54,54,55,55,56,56,57,57,58,58,59,59,60,60,61,61,62,62],"right_children":[2,4,6,8,10,12,14,16,18,20,22,24,26,28,30,32,34,36,38,40,42,44,46,48,50,52,54,56,58,60,62,64,66,68,70,72,74,76,78,80,82,84,86,88,90,92,94,96,98,100,102,104,106,108,110,112,114,116,118,120,122,124,126,-1,-1,-1,-1,-1,-1,-1,-1,-1,-1,-1,-1,-1,-1,-1,-1,-1,-1,-1,-1,-1,-1,-1,-1,-1,-1,-1,-1,-1,-1,-1,-1,-1,-1,-1,-1,-1,-1,-1,-1,-1,-1,-1,-1,-1,-1,-1,-1,-1,-1,-1,-1,-1,-1,-1,-1,-1,-1,-1,-1,-1,-1,-1,-1],"split_conditions":[3.65273E2,1.84E0,1.5166365E3,5.7987972E1,2.6097842E2,1.892E3,3.5247E2,1.1517E2,8.743E2,7.8858E2,4.4908E2,1.08531E3,9.1E-1,1E-2,1.1813E3,9.06E1,1.8387E2,5.529E2,2.0654E3,4.8629E2,5.0988E2,1.22284E3,6.6183E2,6.596773E2,1.1421525E3,2.52766E3,1.6161E2,1.3341E2,2.49974E3,1.3504E2,1.45052E3,2.149E1,2.513E2,8.5034E2,5.4706583E0,2.15675E3,1.6302E2,7.9482E2,3.4195E2,2.4262E2,1.0241671E2,8.835E2,8.4954E2,2.6161E2,1.9555E3,6.8985E2,8.1811E2,9.5131E2,2.6161E2,9.5468E2,2.36408E3,2.27197E3,3.3958E2,6.8691284E2,3.5247E2,1.1287E2,1.24069E3,6.0701E2,2.516E3,1E-2,3.21E0,1.5516E2,1E-2,5.718396E1,-1.624797E-1,-2.0782354E1,-1.1569814E1,-6.264416E1,-1.9094007E1,-5.496136E1,-3.7354198E0,-5.6095247E0,-1.7769905E1,2.9074995E1,7.586702E-1,3.0610758E1,-1.0627857E1,-2.3148357E1,-9.433827E1,-2.3791367E1,-1.8457558E1,-1.491677E1,-1.406393E0,-8.702824E0,-2.088455E1,-1.1889493E1,-1.9112986E1,2.4322676E1,-2.3078911E0,-2.7331938E1,-1.7120577E1,9.582708E1,9.91611E-1,-5.419032E0,-1.3346193E1,2.580574E0,-1.6395458E1,-7.537598E0,7.6007714E0,-5.678158E0,-1.3618935E1,1.5139408E0,-2.1053265E1,9.593547E0,3.4656166E1,-4.3775272E1,-9.922947E0,-2.9187517E0,9.602517E0,1.3414306E1,-9.5730915E0,-5.483444E1,-9.761235E1,-5.428854E0,-3.2123943E1,2.923881E1,1.9819345E-3,1.439418E2,3.6987915E1,-3.5302242E1,2.0406572E1,3.7904938E1,8.672253E0,-3.385137E1,6.8293395E0,-4.9338596E1,2.94634E1],"split_indices":[7,2,7,7,7,3,4,1,6,3,6,6,2,2,4,5,1,4,3,5,6,3,6,7,7,3,0,5,5,3,4,1,0,4,7,3,0,4,0,5,7,5,6,6,3,3,4,5,6,4,5,3,4,7,4,1,6,5,5,2,2,5,2,0,0,0,0,0,0,0,0,0,0,0,0,0,0,0,0,0,0,0,0,0,0,0,0,0,0,0,0,0,0,0,0,0,0,0,0,0,0,0,0,0,0,0,0,0,0,0,0,0,0,0,0,0,0,0,0,0,0,0,0,0,0,0,0],"split_type":[0,0,0,0,0,0,0,0,0,0,0,0,0,0,0,0,0,0,0,0,0,0,0,0,0,0,0,0,0,0,0,0,0,0,0,0,0,0,0,0,0,0,0,0,0,0,0,0,0,0,0,0,0,0,0,0,0,0,0,0,0,0,0,0,0,0,0,0,0,0,0,0,0,0,0,0,0,0,0,0,0,0,0,0,0,0,0,0,0,0,0,0,0,0,0,0,0,0,0,0,0,0,0,0,0,0,0,0,0,0,0,0,0,0,0,0,0,0,0,0,0,0,0,0,0,0,0],"sum_hessian":[6.687539E6,2.103241E6,4.584298E6,1.068077E6,1.035164E6,3.51535E6,1.068948E6,2.34493E5,8.33584E5,7.9157E5,2.43594E5,2.149806E6,1.365544E6,1.71923E5,8.97025E5,2.20339E5,1.4154E4,4.95275E5,3.38309E5,2.30157E5,5.61413E5,4.4504E4,1.9909E5,1.386984E6,7.62822E5,8.41602E5,5.23942E5,1.40096E5,3.1827E4,6.75768E5,2.21257E5,7.673E3,2.12666E5,1.0781E4,3.373E3,1.93733E5,3.01542E5,2.78142E5,6.0167E4,9.8231E4,1.31926E5,1.67305E5,3.94108E5,3.042E3,4.1462E4,4.2507E4,1.56583E5,4.10521E5,9.76463E5,5.70686E5,1.92136E5,7.45587E5,9.6015E4,2.34819E5,2.89123E5,9.531E3,1.30565E5,2.2146E4,9.681E3,2.9229E4,6.46539E5,1.99654E5,2.1603E4,1.622E3,6.051E3,1.51917E5,6.0749E4,7.94E3,2.841E3,5.12E2,2.861E3,7.883E4,1.14903E5,1.39944E5,1.61598E5,1.1545E4,2.66597E5,5.7771E4,2.396E3,2.796E4,7.0271E4,6.8694E4,6.3232E4,1.212E4,1.55185E5,1.27834E5,2.66274E5,7.28E2,2.314E3,1.4718E4,2.6744E4,9.91E2,4.1516E4,2.3633E4,1.3295E5,2.01191E5,2.0933E5,2.40593E5,7.3587E5,2.21405E5,3.49281E5,1.62381E5,2.9755E4,4.56329E5,2.89258E5,2.3405E4,7.261E4,1.29889E5,1.0493E5,1.7423E4,2.717E5,7.62E3,1.911E3,9.6916E4,3.3649E4,1.323E4,8.916E3,1.24E3,8.441E3,2.7013E4,2.216E3,4.67411E5,1.79128E5,1.3661E4,1.85993E5,1.931E4,2.293E3],"tree_param":{"num_deleted":"0","num_feature":"8","num_nodes":"127","size_leaf_vector":"1"}},{"base_weights":[3.5825E-4,-1.741264E1,1.6690456E1,-2.2620342E0,-3.1989056E1,5.773628E1,7.9784613E0,-2.752374E1,5.6880703E1,7.220314E1,-3.5527897E1,3.2355785E1,4.0756104E2,-4.8124674E-1,4.115031E1,-4.594744E1,1.7779623E0,9.4103265E-1,1.2844643E2,2.5320276E1,3.672442E2,-2.8349768E1,-6.095527E1,6.1643883E1,2.5129914E0,5.509492E2,1.3263875E2,-3.4719498E1,7.386821E0,8.295633E1,-1.6040176E1,-4.8717033E1,5.6614647E0,-4.154491E1,2.288718E1,7.652955E1,-1.7835516E1,1.7773804E2,-4.6832533E0,-1.2495486E1,1.8659341E2,8.745743E1,9.4961926E2,2.3739421E0,-3.0843203E1,6.8681465E1,-6.2667778E1,7.010346E1,-1.1539684E2,2.8416658E1,-2.4702616E1,6.2016833E2,-2.1979061E1,9.040814E1,7.1184625E2,-2.9008148E1,-8.993805E1,-8.87851E1,1.0907157E1,9.142379E1,-1.5577312E2,-2.9024765E2,-8.61713E0,-1.3938262E1,-2.9426025E1,-8.198992E0,7.257413E1,-2.1924278E1,-7.10309E0,9.142562E0,-3.1797575E1,-1.5569488E1,3.1608929E1,-1.5887698E1,1.6966625E1,7.0654396E1,1.035904E1,4.72997E1,-6.4972477E0,9.6424034E1,-7.868176E0,8.2471596E1,-1.467993E1,-2.5112644E1,1.2299933E2,4.582673E2,1.9095056E2,7.057383E0,-1.7102911E1,-9.734153E0,1.5062855E0,1.3344794E1,1.5164139E2,-2.4262308E1,-1.4459279E1,-3.5561897E1,2.3430439E1,-5.5323986E1,-1.9428335E1,1.06924715E1,-4.9547092E1,-1.658804E1,-3.247341E0,1.5513792E2,2.7718716E2,1.5309606E1,-4.6189156E1,1.18506294E2,-3.0531976E0,2.9875525E2,1.3231223E2,-3.811139E0,-1.2126426E1,-2.330222E1,-5.6653988E1,-3.2452362E1,1.4281369E1,9.936206E0,-1.2009933E0,2.0944E1,5.421376E1,1.4204617E2,-5.058798E1,-9.791376E1,2.8053713E1,3.4584156E1,-5.875758E0],"categories":[],"categories_nodes":[],"categories_segments":[],"categories_sizes":[],"default_left":[0,0,0,0,0,0,0,0,0,0,0,0,0,0,0,0,0,0,0,0,0,0,0,0,0,0,0,0,0,0,0,0,0,0,0,0,0,0,0,0,0,0,0,0,0,0,0,0,0,0,0,0,0,0,0,0,0,0,0,0,0,0,0,0,0,0,0,0,0,0,0,0,0,0,0,0,0,0,0,0,0,0,0,0,0,0,0,0,0,0,0,0,0,0,0,0,0,0,0,0,0,0,0,0,0,0,0,0,0,0,0,0,0,0,0,0,0,0,0,0,0,0,0,0,0,0,0],"id":5,"left_children":[1,3,5,7,9,11,13,15,17,19,21,23,25,27,29,31,33,35,37,39,41,43,45,47,49,51,53,55,57,59,61,63,65,67,69,71,73,75,77,79,81,83,85,87,89,91,93,95,97,99,101,103,105,107,109,111,113,115,117,119,121,123,125,-1,-1,-1,-1,-1,-1,-1,-1,-1,-1,-1,-1,-1,-1,-1,-1,-1,-1,-1,-1,-1,-1,-1,-1,-1,-1,-1,-1,-1,-1,-1,-1,-1,-1,-1,-1,-1,-1,-1,-1,-1,-1,-1,-1,-1,-1,-1,-1,-1,-1,-1,-1,-1,-1,-1,-1,-1,-1,-1,-1,-1,-1,-1,-1],"loss_changes":[1.9435643E9,7.227903E8,1.2210478E9,2.3977042E9,6.150469E8,5.308256E9,7.9045843E8,6.07068E8,1.9228877E9,7.5792166E8,2.9445235E8,4.872091E8,1.594175E9,6.046179E8,1.3685156E9,9.868531E7,3.9699606E8,3.82631E8,1.3828283E9,2.883595E8,1.2240913E9,9.638029E7,7.885158E7,4.2134707E8,1.9464538E8,1.0540718E9,3.3905306E8,1.3226272E8,6.178726E8,6.6843494E8,4.9200147E8,7.298125E7,2.7409325E8,8.013808E7,2.8544864E8,1.9864707E8,5.642518E8,1.2724357E9,1.5691854E8,1.7562922E8,1.8681638E8,2.8027018E8,4.4021453E8,1.1861832E8,6.6939776E7,4.8926252E7,9.234419E7,4.0510874E8,4.482504E7,1.9784374E8,5.716004E7,7.418419E8,2.7625644E7,3.959599E8,7.200995E7,7.072758E7,4.7671296E7,1.704311E8,5.8312506E8,6.161784E8,9.169462E7,8.836979E7,3.1983875E8,0E0,0E0,0E0,0E0,0E0,0E0,0E0,0E0,0E0,0E0,0E0,0E0,0E0,0E0,0E0,0E0,0E0,0E0,0E0,0E0,0E0,0E0,0E0,0E0,0E0,0E0,0E0,0E0,0E0,0E0,0E0,0E0,0E0,0E0,0E0,0E0,0E0,0E0,0E0,0E0,0E0,0E0,0E0,0E0,0E0,0E0,0E0,0E0,0E0,0E0,0E0,0E0,0E0,0E0,0E0,0E0,0E0,0E0,0E0,0E0,0E0,0E0,0E0,0E0],"parents":[2147483647,0,0,1,1,2,2,3,3,4,4,5,5,6,6,7,7,8,8,9,9,10,10,11,11,12,12,13,13,14,14,15,15,16,16,17,17,18,18,19,19,20,20,21,21,22,22,23,23,24,24,25,25,26,26,27,27,28,28,29,29,30,30,31,31,32,32,33,33,34,34,35,35,36,36,37,37,38,38,39,39,40,40,41,41,42,42,43,43,44,44,45,45,46,46,47,47,48,48,49,49,50,50,51,51,52,52,53,53,54,54,55,55,56,56,57,57,58,58,59,59,60,60,61,61,62,62],"right_children":[2,4,6,8,10,12,14,16,18,20,22,24,26,28,30,32,34,36,38,40,42,44,46,48,50,52,54,56,58,60,62,64,66,68,70,72,74,76,78,80,82,84,86,88,90,92,94,96,98,100,102,104,106,108,110,112,114,116,118,120,122,124,126,-1,-1,-1,-1,-1,-1,-1,-1,-1,-1,-1,-1,-1,-1,-1,-1,-1,-1,-1,-1,-1,-1,-1,-1,-1,-1,-1,-1,-1,-1,-1,-1,-1,-1,-1,-1,-1,-1,-1,-1,-1,-1,-1,-1,-1,-1,-1,-1,-1,-1,-1,-1,-1,-1,-1,-1,-1,-1,-1,-1,-1,-1,-1,-1],"split_conditions":[6.330915E2,7.829E2,4.747E1,7.4636E2,6.2128E2,4.746E1,2.39211E3,5.2875E2,2.09971E3,9.246E1,2.0654E3,6.9025E2,6.2128E2,2.7723E2,7.1775E2,2.6847E3,9.041481E1,8.1812E2,8.4644E2,2.43179E3,2.31256E3,7.996E2,1E-1,2.68094E3,1.15195E3,1.75E0,1.52997E3,2.49353E3,9.06E1,1.45052E3,7.2724E2,2.61515E3,2.2631E2,2.957351E1,2.60486E3,1.4271E2,2.17825E3,1.78E0,2.21037E3,3.0559E2,2.37532E3,9.8697E2,1.0905E2,2.15154E3,1.49956E3,6.274075E2,1.16E0,1.5812E2,8.835E2,1.46594E3,8.8057904E2,2.54256E3,1.839E1,1.7449E2,1.7525E2,1.609E2,2.6738E2,1.2404E2,7.2039E2,1.9368074E3,2.3879E2,9.5955E2,7.4774E2,-1.3938262E1,-2.9426025E1,-8.198992E0,7.257413E1,-2.1924278E1,-7.10309E0,9.142562E0,-3.1797575E1,-1.5569488E1,3.1608929E1,-1.5887698E1,1.6966625E1,7.0654396E1,1.035904E1,4.72997E1,-6.4972477E0,9.6424034E1,-7.868176E0,8.2471596E1,-1.467993E1,-2.5112644E1,1.2299933E2,4.582673E2,1.9095056E2,7.057383E0,-1.7102911E1,-9.734153E0,1.5062855E0,1.3344794E1,1.5164139E2,-2.4262308E1,-1.4459279E1,-3.5561897E1,2.3430439E1,-5.5323986E1,-1.9428335E1,1.06924715E1,-4.9547092E1,-1.658804E1,-3.247341E0,1.5513792E2,2.7718716E2,1.5309606E1,-4.6189156E1,1.18506294E2,-3.0531976E0,2.9875525E2,1.3231223E2,-3.811139E0,-1.2126426E1,-2.330222E1,-5.6653988E1,-3.2452362E1,1.4281369E1,9.936206E0,-1.2009933E0,2.0944E1,5.421376E1,1.4204617E2,-5.058798E1,-9.791376E1,2.8053713E1,3.4584156E1,-5.875758E0],"split_indices":[7,6,0,4,4,0,5,6,3,1,3,4,4,6,6,5,7,3,4,3,5,4,1,3,3,2,6,3,5,4,6,5,0,7,5,5,5,2,3,4,5,6,1,5,6,7,2,6,5,4,7,5,2,5,1,0,6,1,5,7,6,3,6,0,0,0,0,0,0,0,0,0,0,0,0,0,0,0,0,0,0,0,0,0,0,0,0,0,0,0,0,0,0,0,0,0,0,0,0,0,0,0,0,0,0,0,0,0,0,0,0,0,0,0,0,0,0,0,0,0,0,0,0,0,0,0,0],"split_type":[0,0,0,0,0,0,0,0,0,0,0,0,0,0,0,0,0,0,0,0,0,0,0,0,0,0,0,0,0,0,0,0,0,0,0,0,0,0,0,0,0,0,0,0,0,0,0,0,0,0,0,0,0,0,0,0,0,0,0,0,0,0,0,0,0,0,0,0,0,0,0,0,0,0,0,0,0,0,0,0,0,0,0,0,0,0,0,0,0,0,0,0,0,0,0,0,0,0,0,0,0,0,0,0,0,0,0,0,0,0,0,0,0,0,0,0,0,0,0,0,0,0,0,0,0,0,0],"sum_hessian":[6.687539E6,3.27289E6,3.414649E6,1.604837E6,1.668053E6,5.97863E5,2.816786E6,1.12452E6,4.80317E5,5.4793E4,1.61326E6,5.57422E5,4.0441E4,2.244404E6,5.72382E5,6.90415E5,4.34105E5,2.69591E5,2.10726E5,4.7281E4,7.512E3,1.258101E6,3.55159E5,2.81325E5,2.76097E5,2.6578E4,1.3863E4,4.19393E5,1.825011E6,3.30666E5,2.41716E5,6.55251E5,3.5164E4,1.42221E5,2.91884E5,5.3642E4,2.15949E5,1.53786E5,5.694E4,3.8301E4,8.98E3,5.075E3,2.437E3,9.4439E4,1.163662E6,4.63E3,3.50529E5,2.68496E5,1.2829E4,1.41458E5,1.34639E5,2.3713E4,2.865E3,1.2922E4,9.41E2,3.80082E5,3.9311E4,6.4444E4,1.760567E6,3.1934E5,1.1326E4,6.37E3,2.35346E5,6.26617E5,2.8634E4,3.0856E4,4.308E3,5.1436E4,9.0785E4,2.75655E5,1.6229E4,9.835E3,4.3807E4,1.4669E5,6.9259E4,1.09577E5,4.4209E4,5.389E3,5.1551E4,1.512E3,3.6789E4,6.531E3,2.449E3,3.316E3,1.759E3,8.55E2,1.582E3,6.9637E4,2.4802E4,1.113847E6,4.9815E4,4.388E3,2.42E2,1.55222E5,1.95307E5,1.092E4,2.57576E5,5.428E3,7.401E3,1.36369E5,5.089E3,4.2018E4,9.2621E4,1.7709E4,6.004E3,1.845E3,1.02E3,3.207E3,9.715E3,4.58E2,4.83E2,1.56507E5,2.23575E5,3.4976E4,4.335E3,5.6423E4,8.021E3,7.07113E5,1.053454E6,2.57113E5,6.2227E4,2.26E2,1.11E4,5.822E3,5.48E2,1.914E4,2.16206E5],"tree_param":{"num_deleted":"0","num_feature":"8","num_nodes":"127","size_leaf_vector":"1"}},{"base_weights":[5.393108E-4,-7.5933747E0,2.3836443E1,-1.7620953E1,1.3571001E0,2.7974583E1,-6.0209583E1,-7.71021E0,-3.2867714E1,1.2838086E1,-1.7937515E1,1.9066343E1,7.22712E1,-4.607932E1,-1.6685117E2,2.0505756E1,-1.8846207E1,-1.3456706E0,-3.97944E1,6.01815E-1,5.618394E1,2.4983861E0,-2.7226864E1,1.770659E1,3.4952634E2,1.2807994E2,1.2846867E1,-4.9442074E1,3.8280246E2,-1.9575E2,-3.9598297E1,-9.465277E0,5.0665485E1,-9.094615E0,-3.4922535E1,5.3873158E1,-4.1586086E1,-1.1882432E1,-4.590226E1,-1.4605785E1,5.7380917E1,3.2460686E1,1.9420363E2,1.0696636E0,4.1783542E2,-1.2504501E2,-2.5299822E1,-1.5026138E0,3.801174E1,1.5165E2,6.7717615E2,1.5666774E1,2.0953732E2,3.5506725E1,-4.5721664E1,-1.0198466E2,-3.1470842E1,2.8283615E2,7.659994E0,-2.2455399E2,-1.4023013E2,8.000924E1,-7.262678E1,-5.14307E0,1.747629E1,-1.1758744E1,2.301609E1,-1.0272656E1,1.0564703E0,-1.1362575E1,2.8263775E1,-1.4969648E1,2.8360332E1,-5.138132E0,-1.6275936E1,-2.0038116E-1,-2.468958E1,-1.5171499E1,5.567178E-2,-9.460373E0,6.214201E-1,3.2468235E1,-4.2925E0,-3.3254623E0,1.708679E1,8.8838005E1,-1.6861994E1,-1.7688545E0,1.9751297E1,1.7956964E2,2.7485762E1,-9.333558E1,-1.06198E1,-4.627725E0,-1.0864934E1,-3.5297943E1,7.3017657E-1,1.7490011E1,-2.028764E0,7.637707E1,-2.2622858E1,5.402622E2,7.666388E0,-2.479852E1,2.3828865E1,9.116055E1,2.0711666E1,2.3130781E1,-7.073875E-1,-3.802834E1,-7.066591E0,-1.6821917E1,-4.587162E1,-1.633474E1,4.0202317E0,-1.8252176E1,2.5039482E1,-6.965836E1,-9.351843E0,-4.3045944E1,1.1575395E1,9.878881E0,7.033944E1,1.5608998E1,-3.18152E1],"categories":[],"categories_nodes":[],"categories_segments":[],"categories_sizes":[],"default_left":[0,0,0,0,0,0,0,0,0,0,0,0,0,0,0,0,0,0,0,0,0,0,0,0,0,0,0,0,0,0,0,0,0,0,0,0,0,0,0,0,0,0,0,0,0,0,0,0,0,0,0,0,0,0,0,0,0,0,0,0,0,0,0,0,0,0,0,0,0,0,0,0,0,0,0,0,0,0,0,0,0,0,0,0,0,0,0,0,0,0,0,0,0,0,0,0,0,0,0,0,0,0,0,0,0,0,0,0,0,0,0,0,0,0,0,0,0,0,0,0,0,0,0,0,0],"id":6,"left_children":[1,3,5,7,9,11,13,15,17,19,21,23,25,27,29,31,33,35,37,39,41,43,45,47,49,51,53,55,57,59,61,63,65,67,69,71,73,75,77,79,81,83,85,87,89,91,93,95,97,99,101,103,105,107,109,111,113,-1,115,117,119,121,123,-1,-1,-1,-1,-1,-1,-1,-1,-1,-1,-1,-1,-1,-1,-1,-1,-1,-1,-1,-1,-1,-1,-1,-1,-1,-1,-1,-1,-1,-1,-1,-1,-1,-1,-1,-1,-1,-1,-1,-1,-1,-1,-1,-1,-1,-1,-1,-1,-1,-1,-1,-1,-1,-1,-1,-1,-1,-1,-1,-1,-1,-1],"loss_changes":[1.2104972E9,4.5519594E8,5.61971E8,3.6143827E8,5.936306E8,6.076851E8,1.142495E8,4.554969E8,2.057449E8,8.911013E8,1.8978102E8,5.761174E8,8.551114E8,9.658163E7,3.261496E7,3.7081216E8,1.6294886E8,3.7721382E8,1.3170406E8,1.131339E9,1.2110374E9,1.8538824E8,1.2955133E8,4.9804595E8,3.405358E8,1.2175598E9,1.6573406E8,6.2727424E7,1.0944137E8,1.1529088E7,6.496409E6,1.06989096E8,4.7873254E8,2.0526384E8,1.4964128E8,3.019607E8,3.042336E7,1.0953037E8,1.3640422E8,2.9176186E8,1.0089462E9,3.3665795E8,1.384591E9,1.4046888E8,6.3088176E7,2.2147523E8,7.265267E7,3.0003126E8,5.638751E8,7.661437E7,1.4482961E9,3.5028835E8,1.0218015E9,1.4181766E8,6.2576464E7,3.95736E7,5.1042956E7,0E0,1.6303879E6,7.022912E6,1.444944E6,2.5810082E6,5.371988E6,0E0,0E0,0E0,0E0,0E0,0E0,0E0,0E0,0E0,0E0,0E0,0E0,0E0,0E0,0E0,0E0,0E0,0E0,0E0,0E0,0E0,0E0,0E0,0E0,0E0,0E0,0E0,0E0,0E0,0E0,0E0,0E0,0E0,0E0,0E0,0E0,0E0,0E0,0E0,0E0,0E0,0E0,0E0,0E0,0E0,0E0,0E0,0E0,0E0,0E0,0E0,0E0,0E0,0E0,0E0,0E0,0E0,0E0,0E0,0E0,0E0,0E0],"parents":[2147483647,0,0,1,1,2,2,3,3,4,4,5,5,6,6,7,7,8,8,9,9,10,10,11,11,12,12,13,13,14,14,15,15,16,16,17,17,18,18,19,19,20,20,21,21,22,22,23,23,24,24,25,25,26,26,27,27,28,28,29,29,30,30,31,31,32,32,33,33,34,34,35,35,36,36,37,37,38,38,39,39,40,40,41,41,42,42,43,43,44,44,45,45,46,46,47,47,48,48,49,49,50,50,51,51,52,52,53,53,54,54,55,55,56,56,58,58,59,59,60,60,61,61,62,62],"right_children":[2,4,6,8,10,12,14,16,18,20,22,24,26,28,30,32,34,36,38,40,42,44,46,48,50,52,54,56,58,60,62,64,66,68,70,72,74,76,78,80,82,84,86,88,90,92,94,96,98,100,102,104,106,108,110,112,114,-1,116,118,120,122,124,-1,-1,-1,-1,-1,-1,-1,-1,-1,-1,-1,-1,-1,-1,-1,-1,-1,-1,-1,-1,-1,-1,-1,-1,-1,-1,-1,-1,-1,-1,-1,-1,-1,-1,-1,-1,-1,-1,-1,-1,-1,-1,-1,-1,-1,-1,-1,-1,-1,-1,-1,-1,-1,-1,-1,-1,-1,-1,-1,-1,-1,-1],"split_conditions":[1.2288456E3,1.65527E3,2.56476E3,9.6207E2,8.3873E2,2.2867E3,1.44427E3,6.6183E2,8.1812E2,7.7455E2,7.9172E2,2.71115E3,6.3948E2,1.43552E3,1E-2,6.9025E2,1.19859E3,9.3928E2,5.4581E2,9.4594E2,2.2867E3,2.3333E2,8.4916E2,2.02925E3,2.8257E2,4.6133E2,8.248E1,1.6412635E3,4.0593E2,1.05144E3,1.46692E3,3.21E0,5.0933E2,9.4965E2,1.50384E3,5.7935E2,1.1598E3,8.897E1,2.18597E3,5.4101E2,6.321E2,1.892E3,1.6243E2,2.58034E3,7E-2,1E-2,1.93615E3,6.504E1,1.1931E3,7.8858E2,2.9348E2,5.1969E2,6.0701E2,2.2907E2,1.0229E2,1.455911E3,1E-2,2.8283615E2,3.0514E2,6.074E1,1.49956E3,2.5255E2,1.4058716E3,-5.14307E0,1.747629E1,-1.1758744E1,2.301609E1,-1.0272656E1,1.0564703E0,-1.1362575E1,2.8263775E1,-1.4969648E1,2.8360332E1,-5.138132E0,-1.6275936E1,-2.0038116E-1,-2.468958E1,-1.5171499E1,5.567178E-2,-9.460373E0,6.214201E-1,3.2468235E1,-4.2925E0,-3.3254623E0,1.708679E1,8.8838005E1,-1.6861994E1,-1.7688545E0,1.9751297E1,1.7956964E2,2.7485762E1,-9.333558E1,-1.06198E1,-4.627725E0,-1.0864934E1,-3.5297943E1,7.3017657E-1,1.7490011E1,-2.028764E0,7.637707E1,-2.2622858E1,5.402622E2,7.666388E0,-2.479852E1,2.3828865E1,9.116055E1,2.0711666E1,2.3130781E1,-7.073875E-1,-3.802834E1,-7.066591E0,-1.6821917E1,-4.587162E1,-1.633474E1,4.0202317E0,-1.8252176E1,2.5039482E1,-6.965836E1,-9.351843E0,-4.3045944E1,1.1575395E1,9.878881E0,7.033944E1,1.5608998E1,-3.18152E1],"split_indices":[7,5,3,5,4,3,6,6,3,4,6,5,4,6,2,4,6,4,4,6,3,1,4,5,6,4,1,7,4,5,6,2,5,6,6,4,4,1,3,4,4,3,0,5,2,2,3,5,4,3,6,6,5,0,5,7,2,0,5,1,6,0,7,0,0,0,0,0,0,0,0,0,0,0,0,0,0,0,0,0,0,0,0,0,0,0,0,0,0,0,0,0,0,0,0,0,0,0,0,0,0,0,0,0,0,0,0,0,0,0,0,0,0,0,0,0,0,0,0,0,0,0,0,0,0],"split_type":[0,0,0,0,0,0,0,0,0,0,0,0,0,0,0,0,0,0,0,0,0,0,0,0,0,0,0,0,0,0,0,0,0,0,0,0,0,0,0,0,0,0,0,0,0,0,0,0,0,0,0,0,0,0,0,0,0,0,0,0,0,0,0,0,0,0,0,0,0,0,0,0,0,0,0,0,0,0,0,0,0,0,0,0,0,0,0,0,0,0,0,0,0,0,0,0,0,0,0,0,0,0,0,0,0,0,0,0,0,0,0,0,0,0,0,0,0,0,0,0,0,0,0,0,0],"sum_hessian":[6.687539E6,5.07173E6,1.615809E6,2.391941E6,2.679789E6,1.539986E6,7.5823E4,1.449642E6,9.42299E5,1.680081E6,9.99708E5,1.282143E6,2.57843E5,6.6953E4,8.87E3,4.10226E5,1.039416E6,1.69759E5,7.7254E5,1.310216E6,3.69865E5,3.12416E5,6.87292E5,1.27689E6,5.253E3,1.32966E5,1.24877E5,6.6433E4,5.2E2,7.228E3,1.642E3,2.05757E5,2.04469E5,6.46975E5,3.92441E5,7.1561E4,9.8198E4,1.38701E5,6.33839E5,1.033426E6,2.7679E5,3.15617E5,5.4248E4,3.11346E5,1.07E3,1.3277E4,6.74015E5,6.56153E5,6.20737E5,3.276E3,1.977E3,5.5868E4,7.7098E4,9.0041E4,3.4836E4,1.693E4,4.9503E4,2.08E2,3.12E2,4.757E3,2.471E3,3.55E2,1.287E3,1.84804E5,2.0953E4,4.5959E4,1.5851E5,2.16142E5,4.30833E5,3.83669E5,8.772E3,2.0146E4,5.1415E4,3.3505E4,6.4693E4,1.19647E5,1.9054E4,5.75529E5,5.831E4,5.12844E5,5.20582E5,1.61935E5,1.14855E5,1.13625E5,2.01992E5,3.8555E4,1.5693E4,2.81113E5,3.0233E4,6.88E2,3.82E2,4.316E3,8.961E3,3.53908E5,3.20107E5,2.1507E4,6.34646E5,4.27174E5,1.93563E5,2.254E3,1.022E3,7.25E2,1.252E3,2.1977E4,3.3891E4,4.6127E4,3.0971E4,4.2906E4,4.7135E4,7.481E3,2.7355E4,8.904E3,8.026E3,3.2738E4,1.6765E4,1.64E2,1.48E2,4.576E3,1.81E2,2.427E3,4.4E1,2.73E2,8.2E1,2.72E2,1.015E3],"tree_param":{"num_deleted":"0","num_feature":"8","num_nodes":"125","size_leaf_vector":"1"}},{"base_weights":[5.338802E-4,7.234674E0,-1.4448966E1,3.2579437E1,2.3828652E0,-1.5656419E1,3.0458328E1,1.1126439E1,2.4803702E2,5.3170834E0,-3.450234E1,-2.0498451E1,-7.971846E0,7.713381E1,4.5543013E0,-1.783377E1,3.3724033E1,3.7976813E2,2.4633692E1,2.907071E0,5.7613003E1,-5.1150013E1,-1.3414437E1,-7.9270334E0,-2.9815163E1,1.935711E0,-2.3584871E1,2.9965876E1,1.2269775E2,7.970298E1,-1.3611479E1,-3.1738455E0,-5.7955772E1,5.5036705E1,5.7969666E0,6.54249E1,4.1785388E2,1.1723967E2,-1.4021251E2,-5.336366E0,2.2889915E1,9.0596485E0,1.6281544E2,-2.7989195E1,-7.661936E1,5.755807E1,-2.1761988E1,8.160835E1,-1.91017E1,-4.2008453E1,-1.3677724E1,-8.304207E0,3.9818333E1,-1.8639053E1,-6.1012226E1,1.3144364E1,2.217885E2,8.0292564E1,1.7149474E2,1.9433719E2,4.3910477E1,3.5831657E1,-2.3795158E1,-1.2619018E1,2.5293524E0,-4.591444E0,-2.1590988E1,-1.9919785E1,1.9926708E1,-3.5725188E0,2.5840704E1,1.6683302E2,1.2299313E1,4.6843132E1,1.3944347E2,1.8632822E2,2.5677877E1,-4.972388E1,8.161308E1,-2.4718622E1,-1.1834393E0,1.2952425E1,-4.4235654E0,1.5325854E0,1.89663E2,1.1705772E2,2.9574009E1,1.0434241E1,-1.2454849E1,-2.5415585E1,1.0409652E1,-2.093632E1,2.7653843E1,2.9991758E0,-1.1425768E1,1.7212908E1,4.526313E1,-2.7668006E0,-1.4867206E1,-1.1546028E1,-2.3924885E1,-3.6106758E0,-1.8519323E1,1.0868746E0,-8.84477E0,2.69563E1,1.9926887E0,8.397624E0,-6.493425E0,-1.3831742E1,-2.6059778E1,1.4106481E0,5.466688E1,1.7359724E2,4.4809845E1,2.923435E1,-4.8860917E0,7.500288E1,3.737384E1,7.0736824E1,1.3796494E0,-2.3770773E1,2.0243351E1,4.009364E1,-9.804592E0,-2.089291E1,-3.6843414E0],"categories":[],"categories_nodes":[],"categories_segments":[],"categories_sizes":[],"default_left":[0,0,0,0,0,0,0,0,0,0,0,0,0,0,0,0,0,0,0,0,0,0,0,0,0,0,0,0,0,0,0,0,0,0,0,0,0,0,0,0,0,0,0,0,0,0,0,0,0,0,0,0,0,0,0,0,0,0,0,0,0,0,0,0,0,0,0,0,0,0,0,0,0,0,0,0,0,0,0,0,0,0,0,0,0,0,0,0,0,0,0,0,0,0,0,0,0,0,0,0,0,0,0,0,0,0,0,0,0,0,0,0,0,0,0,0,0,0,0,0,0,0,0,0,0,0,0],"id":7,"left_children":[1,3,5,7,9,11,13,15,17,19,21,23,25,27,29,31,33,35,37,39,41,43,45,47,49,51,53,55,57,59,61,63,65,67,69,71,73,75,77,79,81,83,85,87,89,91,93,95,97,99,101,103,105,107,109,111,113,115,117,119,121,123,125,-1,-1,-1,-1,-1,-1,-1,-1,-1,-1,-1,-1,-1,-1,-1,-1,-1,-1,-1,-1,-1,-1,-1,-1,-1,-1,-1,-1,-1,-1,-1,-1,-1,-1,-1,-1,-1,-1,-1,-1,-1,-1,-1,-1,-1,-1,-1,-1,-1,-1,-1,-1,-1,-1,-1,-1,-1,-1,-1,-1,-1,-1,-1,-1],"loss_changes":[6.9904666E8,5.4799795E8,1.2097898E8,3.3096535E9,4.048206E8,8.084349E7,7.063307E7,4.2616288E8,1.9081487E9,4.3667872E8,9.676074E7,1.5611008E8,1.2991141E8,4.4806256E7,5.1289184E7,1.67878E8,2.1771152E8,4.882862E8,3.671881E8,5.4560006E8,7.7965786E8,9.085702E7,7.2040984E7,5.676361E8,1.5063085E8,1.9930946E8,6.0351584E7,3.3058332E7,2.1930592E7,3.0001144E7,1.5235646E7,9.434257E7,4.565203E7,2.8684026E8,2.2520378E8,5.2823736E7,4.4701184E8,2.4552125E8,9.111994E7,2.5144328E8,7.3846285E8,2.5713211E8,7.039539E8,6.849819E7,6.614112E7,5.6427012E7,5.64066E7,1.0565584E8,1.5175504E8,5.7953664E7,2.5998372E7,1.02167224E8,1.8148677E8,4.036427E7,1.4661856E7,1.344664E7,2.1261772E7,9.405852E6,1.812872E7,1.3684152E7,1.6185312E7,3.4638136E7,1.3243988E7,0E0,0E0,0E0,0E0,0E0,0E0,0E0,0E0,0E0,0E0,0E0,0E0,0E0,0E0,0E0,0E0,0E0,0E0,0E0,0E0,0E0,0E0,0E0,0E0,0E0,0E0,0E0,0E0,0E0,0E0,0E0,0E0,0E0,0E0,0E0,0E0,0E0,0E0,0E0,0E0,0E0,0E0,0E0,0E0,0E0,0E0,0E0,0E0,0E0,0E0,0E0,0E0,0E0,0E0,0E0,0E0,0E0,0E0,0E0,0E0,0E0,0E0,0E0,0E0],"parents":[2147483647,0,0,1,1,2,2,3,3,4,4,5,5,6,6,7,7,8,8,9,9,10,10,11,11,12,12,13,13,14,14,15,15,16,16,17,17,18,18,19,19,20,20,21,21,22,22,23,23,24,24,25,25,26,26,27,27,28,28,29,29,30,30,31,31,32,32,33,33,34,34,35,35,36,36,37,37,38,38,39,39,40,40,41,41,42,42,43,43,44,44,45,45,46,46,47,47,48,48,49,49,50,50,51,51,52,52,53,53,54,54,55,55,56,56,57,57,58,58,59,59,60,60,61,61,62,62],"right_children":[2,4,6,8,10,12,14,16,18,20,22,24,26,28,30,32,34,36,38,40,42,44,46,48,50,52,54,56,58,60,62,64,66,68,70,72,74,76,78,80,82,84,86,88,90,92,94,96,98,100,102,104,106,108,110,112,114,116,118,120,122,124,126,-1,-1,-1,-1,-1,-1,-1,-1,-1,-1,-1,-1,-1,-1,-1,-1,-1,-1,-1,-1,-1,-1,-1,-1,-1,-1,-1,-1,-1,-1,-1,-1,-1,-1,-1,-1,-1,-1,-1,-1,-1,-1,-1,-1,-1,-1,-1,-1,-1,-1,-1,-1,-1,-1,-1,-1,-1,-1,-1,-1,-1,-1,-1,-1],"split_conditions":[6.17E0,4.747E1,2.0665986E3,4.746E1,2.48541E3,2.01692E3,7.829E2,7.803833E2,6.2128E2,2.41166E3,7.5139E2,8.9504E2,8.4954E2,4.2509E2,1.6287E2,6.64E1,4.601E1,7.601E1,2.33782E3,2.17825E3,2.7492E2,4.9E1,7.7231E2,6.1901E2,1.02991E3,6.1198E2,2.59938E3,2.6847E3,2.2864395E3,5.2691E2,4.7708E2,1.2635541E2,6.644E2,2.184E2,2.372E1,2.1710191E2,1.0619099E2,1.596607E2,8.5493427E2,7.529E1,7.1775E2,1.52997E3,5.5769E2,1.0122E3,2.6847E3,2.50763E3,1.15E2,8.8848E2,1.29948E3,1.2885538E3,1.4058716E3,2.21037E3,2.40906E3,5.2691E2,8.4663477E2,1.3814E3,2.5435E2,2.64128E3,4.7577E2,1.37645E3,4.827E1,1.16398E3,7.1086E2,-1.2619018E1,2.5293524E0,-4.591444E0,-2.1590988E1,-1.9919785E1,1.9926708E1,-3.5725188E0,2.5840704E1,1.6683302E2,1.2299313E1,4.6843132E1,1.3944347E2,1.8632822E2,2.5677877E1,-4.972388E1,8.161308E1,-2.4718622E1,-1.1834393E0,1.2952425E1,-4.4235654E0,1.5325854E0,1.89663E2,1.1705772E2,2.9574009E1,1.0434241E1,-1.2454849E1,-2.5415585E1,1.0409652E1,-2.093632E1,2.7653843E1,2.9991758E0,-1.1425768E1,1.7212908E1,4.526313E1,-2.7668006E0,-1.4867206E1,-1.1546028E1,-2.3924885E1,-3.6106758E0,-1.8519323E1,1.0868746E0,-8.84477E0,2.69563E1,1.9926887E0,8.397624E0,-6.493425E0,-1.3831742E1,-2.6059778E1,1.4106481E0,5.466688E1,1.7359724E2,4.4809845E1,2.923435E1,-4.8860917E0,7.500288E1,3.737384E1,7.0736824E1,1.3796494E0,-2.3770773E1,2.0243351E1,4.009364E1,-9.804592E0,-2.089291E1,-3.6843414E0],"split_indices":[2,0,7,0,3,5,6,7,4,3,4,5,6,6,5,1,1,1,5,5,0,1,4,6,6,6,5,5,7,4,4,7,3,6,0,7,7,7,7,3,6,6,5,5,5,3,0,4,6,7,7,3,5,4,7,4,6,5,6,6,0,6,4,0,0,0,0,0,0,0,0,0,0,0,0,0,0,0,0,0,0,0,0,0,0,0,0,0,0,0,0,0,0,0,0,0,0,0,0,0,0,0,0,0,0,0,0,0,0,0,0,0,0,0,0,0,0,0,0,0,0,0,0,0,0,0,0],"split_type":[0,0,0,0,0,0,0,0,0,0,0,0,0,0,0,0,0,0,0,0,0,0,0,0,0,0,0,0,0,0,0,0,0,0,0,0,0,0,0,0,0,0,0,0,0,0,0,0,0,0,0,0,0,0,0,0,0,0,0,0,0,0,0,0,0,0,0,0,0,0,0,0,0,0,0,0,0,0,0,0,0,0,0,0,0,0,0,0,0,0,0,0,0,0,0,0,0,0,0,0,0,0,0,0,0,0,0,0,0,0,0,0,0,0,0,0,0,0,0,0,0,0,0,0,0,0,0],"sum_hessian":[6.687539E6,4.456429E6,2.23111E6,7.16032E5,3.740397E6,2.172692E6,5.8418E4,6.51194E5,6.4838E4,3.464775E6,2.75622E5,1.332859E6,8.39833E5,2.0849E4,3.7569E4,2.85416E5,3.65778E5,4.0787E4,2.4051E4,3.312139E6,1.52636E5,1.54026E5,1.21596E5,5.67334E5,7.65525E5,5.13795E5,3.26038E5,1.0245E4,1.0604E4,7.313E3,3.0256E4,2.09038E5,7.6378E4,2.07456E5,1.58322E5,4.408E3,3.6379E4,1.54E4,8.651E3,2.344835E6,9.67304E5,1.04437E5,4.8199E4,8.067E4,7.3356E4,1.2796E4,1.088E5,6.295E4,5.04384E5,4.36049E5,3.29476E5,4.04466E5,1.09329E5,2.87984E5,3.8054E4,9.42E3,8.25E2,5.675E3,4.929E3,1.739E3,5.574E3,5.167E3,2.5089E4,4.8042E4,1.60996E5,1.889E4,5.7488E4,1.7783E4,1.89673E5,1.29732E5,2.859E4,2.08E2,4.2E3,5.535E3,3.0844E4,9.09E2,1.4491E4,8.147E3,5.04E2,4.1592E4,2.303243E6,6.28533E5,3.38771E5,1.0378E5,6.57E2,1.0616E4,3.7583E4,1.4302E4,6.6368E4,6.8381E4,4.975E3,2.735E3,1.0061E4,3.6937E4,7.1863E4,4.6637E4,1.6313E4,3.80848E5,1.23536E5,3.98835E5,3.7214E4,3.1859E5,1.0886E4,2.58747E5,1.45719E5,4.3588E4,6.5741E4,1.7438E4,2.70546E5,2.4139E4,1.3915E4,8.973E3,4.47E2,1.38E2,6.87E2,4.819E3,8.56E2,1.842E3,3.087E3,1.427E3,3.12E2,8.95E2,4.679E3,2.128E3,3.039E3,5.035E3,2.0054E4],"tree_param":{"num_deleted":"0","num_feature":"8","num_nodes":"127","size_leaf_vector":"1"}},{"base_weights":[5.7592004E-4,-3.8617058E0,1.7221676E1,-4.303541E0,9.448914E1,-4.379421E1,2.3058088E1,-2.5600578E1,-2.479793E0,3.257677E1,3.8513776E2,-6.915944E1,-2.1976702E1,3.1888891E1,-1.8602901E1,5.5236614E1,-2.7285013E1,2.1543918E0,-1.161893E1,3.7453162E2,2.4814072E1,1.4532758E2,5.2546075E2,-3.7056564E1,-9.679852E1,1.3596059E2,-2.8741894E1,-6.816514E1,3.8693474E1,3.4631508E1,-4.2154568E1,9.989677E1,-4.6434772E1,-2.5011955E1,-4.844696E1,-2.027805E1,5.688603E0,-9.402908E0,-2.0933842E1,2.7871783E2,1.2682538E3,6.2738342E1,-3.5598083E0,2.6306104E2,-2.7110723E1,8.70239E2,2.5057063E2,-5.2975502E1,1.2068256E1,1.2860616E2,-9.922961E1,1.02444664E2,5.344784E2,-4.291137E1,1.9035324E1,1.97241E2,-8.1112755E1,5.3528374E1,-6.303805E0,4.8706207E1,-4.7245323E1,5.495539E1,-5.642291E1,-3.3609843E0,4.493222E1,-3.1699158E1,-1.0154505E1,-2.550902E1,-7.2865915E0,-1.8754406E1,-2.7987647E0,-2.615656E0,-1.1969994E1,-7.0864844E0,2.627982E0,-3.4707808E0,-4.9198303E-2,-9.676031E0,-5.1927433E0,3.118936E2,7.031916E1,4.457475E2,-1.8883295E1,-9.395582E0,3.8375298E1,9.831243E1,-2.1195853E0,6.0865795E1,1.3088486E2,4.383443E1,-2.3592129E1,2.798889E2,-5.8674526E0,1.2305812E2,1.53254E1,-3.449479E1,-1.3888711E1,8.773065E1,2.984461E0,5.9328293E1,-3.223045E1,-2.4121801E1,-3.643509E1,5.325343E1,4.496562E0,2.0816371E2,-5.534387E1,7.930245E0,-1.5120275E1,-1.5595633E1,2.5642832E1,1.18979454E2,6.2489758E0,-3.2629417E1,-4.7112E0,-5.46902E0,2.0107742E1,3.0991783E1,-6.943149E0,1.0162088E1,5.784783E1,-2.6767818E1,-2.1852164E-1,2.520008E1,-1.206278E2,4.510575E1,-1.8421799E1],"categories":[],"categories_nodes":[],"categories_segments":[],"categories_sizes":[],"default_left":[0,0,0,0,0,0,0,0,0,0,0,0,0,0,0,0,0,0,0,0,0,0,0,0,0,0,0,0,0,0,0,0,0,0,0,0,0,0,0,0,0,0,0,0,0,0,0,0,0,0,0,0,0,0,0,0,0,0,0,0,0,0,0,0,0,0,0,0,0,0,0,0,0,0,0,0,0,0,0,0,0,0,0,0,0,0,0,0,0,0,0,0,0,0,0,0,0,0,0,0,0,0,0,0,0,0,0,0,0,0,0,0,0,0,0,0,0,0,0,0,0,0,0,0,0,0,0],"id":8,"left_children":[1,3,5,7,9,11,13,15,17,19,21,23,25,27,29,31,33,35,37,39,41,43,45,47,49,51,53,55,57,59,61,63,65,67,69,71,73,75,77,79,81,83,85,87,89,91,93,95,97,99,101,103,105,107,109,111,113,115,117,119,121,123,125,-1,-1,-1,-1,-1,-1,-1,-1,-1,-1,-1,-1,-1,-1,-1,-1,-1,-1,-1,-1,-1,-1,-1,-1,-1,-1,-1,-1,-1,-1,-1,-1,-1,-1,-1,-1,-1,-1,-1,-1,-1,-1,-1,-1,-1,-1,-1,-1,-1,-1,-1,-1,-1,-1,-1,-1,-1,-1,-1,-1,-1,-1,-1,-1],"loss_changes":[4.448067E8,2.3737027E8,4.3627456E8,2.1121485E8,4.3959907E8,5.9188016E7,4.11365E8,5.840896E7,2.1214645E8,5.3454856E7,1.4428595E8,4.3878464E7,6.144128E7,6.2812154E8,2.4518531E8,3.9762656E7,2.0210944E7,2.635075E8,3.478901E7,3.7923532E7,2.11932E7,3.2185428E7,2.5624614E8,1.7894702E7,1.4575296E7,3.1493756E7,3.7328724E7,2.0189978E8,5.7663706E8,6.912508E7,1.8785973E8,3.371538E7,1.9890975E6,1.6470144E7,2.24268E7,1.0260498E8,2.5848256E8,2.7249504E7,1.3288784E7,1.3414848E7,1.2547632E7,5.167855E7,1.3086137E7,9.730548E6,5.7599995E6,6.699213E7,4.796579E7,7.1528E6,3.3262872E6,4.6570835E6,1.0987472E7,1.4309144E7,2.1100228E7,2.2088424E7,5.952109E7,9.610812E7,1.0131517E8,6.2922726E8,3.9534608E8,1.0940797E8,1.7182746E7,2.306056E8,1.2181043E8,0E0,0E0,0E0,0E0,0E0,0E0,0E0,0E0,0E0,0E0,0E0,0E0,0E0,0E0,0E0,0E0,0E0,0E0,0E0,0E0,0E0,0E0,0E0,0E0,0E0,0E0,0E0,0E0,0E0,0E0,0E0,0E0,0E0,0E0,0E0,0E0,0E0,0E0,0E0,0E0,0E0,0E0,0E0,0E0,0E0,0E0,0E0,0E0,0E0,0E0,0E0,0E0,0E0,0E0,0E0,0E0,0E0,0E0,0E0,0E0,0E0,0E0,0E0,0E0],"parents":[2147483647,0,0,1,1,2,2,3,3,4,4,5,5,6,6,7,7,8,8,9,9,10,10,11,11,12,12,13,13,14,14,15,15,16,16,17,17,18,18,19,19,20,20,21,21,22,22,23,23,24,24,25,25,26,26,27,27,28,28,29,29,30,30,31,31,32,32,33,33,34,34,35,35,36,36,37,37,38,38,39,39,40,40,41,41,42,42,43,43,44,44,45,45,46,46,47,47,48,48,49,49,50,50,51,51,52,52,53,53,54,54,55,55,56,56,57,57,58,58,59,59,60,60,61,61,62,62],"right_children":[2,4,6,8,10,12,14,16,18,20,22,24,26,28,30,32,34,36,38,40,42,44,46,48,50,52,54,56,58,60,62,64,66,68,70,72,74,76,78,80,82,84,86,88,90,92,94,96,98,100,102,104,106,108,110,112,114,116,118,120,122,124,126,-1,-1,-1,-1,-1,-1,-1,-1,-1,-1,-1,-1,-1,-1,-1,-1,-1,-1,-1,-1,-1,-1,-1,-1,-1,-1,-1,-1,-1,-1,-1,-1,-1,-1,-1,-1,-1,-1,-1,-1,-1,-1,-1,-1,-1,-1,-1,-1,-1,-1,-1,-1,-1,-1,-1,-1,-1,-1,-1,-1,-1,-1,-1,-1],"split_conditions":[1.4223358E3,1.52997E3,1.9387E2,6.1808525E1,1.0993884E3,7.1775E2,1.29948E3,9.06E1,6.94E0,5.1663E2,4.4974E2,2.32165E3,4.2371E2,1.157E2,1.00467E3,5.3826E2,9.548E1,5.7E0,1.714E1,6.47E0,1.77339E3,3.3028E2,6.2699E2,1.892E3,6.918E1,3.942E2,2.49974E3,1.62632E3,1.18675E3,2.59938E3,1.4271E2,6.7883725E0,5.4893E2,2E-1,1.13204E3,2.05291E3,2.184E2,9.922206E2,4.4908E2,4.7106E2,9.674E1,1.75456E3,4.66E0,2.3575E3,5.259E1,9.674E1,6.3948E2,2.5739E2,1.455911E3,2.65075E3,2.516E3,1.138E1,1.3185E2,8.1918E2,5.958E1,5.4669E2,7.112E2,2.184E2,6.2246E2,2.58483E3,2.0165436E3,1.5113E2,2.4173E2,-3.3609843E0,4.493222E1,-3.1699158E1,-1.0154505E1,-2.550902E1,-7.2865915E0,-1.8754406E1,-2.7987647E0,-2.615656E0,-1.1969994E1,-7.0864844E0,2.627982E0,-3.4707808E0,-4.9198303E-2,-9.676031E0,-5.1927433E0,3.118936E2,7.031916E1,4.457475E2,-1.8883295E1,-9.395582E0,3.8375298E1,9.831243E1,-2.1195853E0,6.0865795E1,1.3088486E2,4.383443E1,-2.3592129E1,2.798889E2,-5.8674526E0,1.2305812E2,1.53254E1,-3.449479E1,-1.3888711E1,8.773065E1,2.984461E0,5.9328293E1,-3.223045E1,-2.4121801E1,-3.643509E1,5.325343E1,4.496562E0,2.0816371E2,-5.534387E1,7.930245E0,-1.5120275E1,-1.5595633E1,2.5642832E1,1.18979454E2,6.2489758E0,-3.2629417E1,-4.7112E0,-5.46902E0,2.0107742E1,3.0991783E1,-6.943149E0,1.0162088E1,5.784783E1,-2.6767818E1,-2.1852164E-1,2.520008E1,-1.206278E2,4.510575E1,-1.8421799E1],"split_indices":[7,6,4,7,7,6,6,5,2,4,4,5,5,5,3,6,1,1,2,0,3,4,4,3,0,5,5,3,4,5,5,7,4,1,4,3,6,7,6,4,0,5,0,3,0,0,4,3,7,5,5,2,0,5,4,6,6,6,5,5,7,1,4,0,0,0,0,0,0,0,0,0,0,0,0,0,0,0,0,0,0,0,0,0,0,0,0,0,0,0,0,0,0,0,0,0,0,0,0,0,0,0,0,0,0,0,0,0,0,0,0,0,0,0,0,0,0,0,0,0,0,0,0,0,0,0,0],"split_type":[0,0,0,0,0,0,0,0,0,0,0,0,0,0,0,0,0,0,0,0,0,0,0,0,0,0,0,0,0,0,0,0,0,0,0,0,0,0,0,0,0,0,0,0,0,0,0,0,0,0,0,0,0,0,0,0,0,0,0,0,0,0,0,0,0,0,0,0,0,0,0,0,0,0,0,0,0,0,0,0,0,0,0,0,0,0,0,0,0,0,0,0,0,0,0,0,0,0,0,0,0,0,0,0,0,0,0,0,0,0,0,0,0,0,0,0,0,0,0,0,0,0,0,0,0,0,0],"sum_hessian":[6.687539E6,5.462444E6,1.225095E6,5.438015E6,2.4429E4,1.06954E5,1.118141E6,4.28945E5,5.00907E6,2.014E4,4.289E3,4.9455E4,5.7499E4,9.22583E5,1.95558E5,8.755E3,4.2019E5,3.323714E6,1.685356E6,4.46E2,1.9694E4,1.584E3,2.705E3,2.2881E4,2.6574E4,2.361E3,5.5138E4,5.8748E4,8.63835E5,5.9981E4,1.35577E5,6.083E3,2.672E3,3.79436E5,4.0754E4,4.52376E5,2.871338E6,1.361465E6,3.23891E5,4.04E2,4.2E1,8.428E3,1.1266E4,9.41E2,6.43E2,1.199E3,1.506E3,1.7281E4,5.6E3,2.83E2,2.6291E4,2.179E3,1.82E2,4.2526E4,1.2612E4,2.732E3,5.6016E4,6.49654E5,2.14181E5,5.1183E4,8.798E3,1.7368E4,1.18209E5,1.885E3,4.198E3,4.67E2,2.205E3,4.517E3,3.74919E5,2.9974E4,1.078E4,2.84676E5,1.677E5,2.72341E5,2.598997E6,1.102863E6,2.58602E5,7.8557E4,2.45334E5,2.1E1,3.83E2,3.6E1,6E0,3.45E3,4.978E3,1.17E2,1.1149E4,7E2,2.41E2,1.47E2,4.96E2,1.12E3,7.9E1,8.36E2,6.7E2,1.679E3,1.5602E4,4.1E1,5.559E3,2.19E2,6.4E1,1.4236E4,1.2055E4,1.172E3,1.007E3,1.49E2,3.3E1,4.145E3,3.8381E4,6.096E3,6.516E3,1.282E3,1.45E3,3.9371E4,1.6645E4,1.02851E5,5.46803E5,2.8523E4,1.85658E5,4.6408E4,4.775E3,4.624E3,4.174E3,1.6331E4,1.037E3,2.781E3,1.15428E5],"tree_param":{"num_deleted":"0","num_feature":"8","num_nodes":"127","size_leaf_vector":"1"}},{"base_weights":[6.705287E-4,-1.0388573E1,3.8756998E0,-1.213939E1,1.7588966E1,-8.136648E1,4.663993E0,-1.0709272E1,-2.6619232E1,5.020986E2,-5.0686765E0,-9.1314766E1,3.0655436E1,1.0008631E1,-7.044046E0,-1.3778557E1,1.6410881E1,-2.0964584E1,-6.3396877E1,7.2169025E2,-1.5581158E2,6.142725E1,-1.4298692E1,1.0711397E0,-1.03579475E2,2.4601881E1,3.1052905E2,-1.9443085E1,1.3965569E1,1.549548E0,-1.2788311E1,-1.2697673E1,-4.8830887E1,2.0311397E2,6.72816E0,2.1071463E1,-2.8485798E1,-2.0703375E2,-1.8921328E1,7.977831E2,-4.3799946E1,-2.8330412E1,-3.727246E2,1.7822844E2,5.503526E1,1.723471E1,-3.5763927E1,-3.6224754E1,1.3537321E1,1.3760497E2,-1.0770488E2,9.175228E1,1.6655722E1,2.0689659E2,3.1117903E1,-2.2749123E1,9.0264565E1,3.2964264E1,4.370647E0,6.725886E1,-4.528326E0,-7.742501E0,-2.83837E1,-1.5763666E1,-3.5264351E0,4.6463165E1,-1.7287935E1,-4.8491726E0,1.2732886E2,8.935666E0,-8.758344E0,5.1546047E1,-1.6755846E1,-2.9999678E0,-1.2660541E1,-8.5701E1,-1.4919139E1,-1.7900978E1,3.1282904E0,1.07070595E2,2.958073E2,-8.303616E1,4.6534295E0,-3.0917791E1,2.8611174E0,-1.8239359E2,-5.7213964E0,7.698189E1,2.2458279E1,5.6041613E0,2.0282084E1,-8.430985E0,1.7096825E1,-4.8605223E0,-1.856993E1,-6.499397E0,-1.7511154E1,1.0375863E1,1.8338944E0,2.4692646E1,4.3925304E1,-3.5288948E1,-6.8708224E0,2.6291544E1,3.0961546E1,-4.1605897E0,9.09114E0,-3.546375E0,-1.6130245E1,-2.0036198E1,4.403509E1,-6.287943E0,1.3772433E1,2.3608696E0,-2.7269266E1,1.3618884E1,3.7859196E1,-5.7486434E0,6.356583E0,6.488469E0,-2.9933825E0,-1.3577358E1,-3.3820329E0],"categories":[],"categories_nodes":[],"categories_segments":[],"categories_sizes":[],"default_left":[0,0,0,0,0,0,0,0,0,0,0,0,0,0,0,0,0,0,0,0,0,0,0,0,0,0,0,0,0,0,0,0,0,0,0,0,0,0,0,0,0,0,0,0,0,0,0,0,0,0,0,0,0,0,0,0,0,0,0,0,0,0,0,0,0,0,0,0,0,0,0,0,0,0,0,0,0,0,0,0,0,0,0,0,0,0,0,0,0,0,0,0,0,0,0,0,0,0,0,0,0,0,0,0,0,0,0,0,0,0,0,0,0,0,0,0,0,0,0,0,0,0,0],"id":9,"left_children":[1,3,5,7,9,11,13,15,17,19,21,23,25,27,29,31,33,35,37,39,41,43,45,47,49,51,53,55,57,59,61,63,65,67,69,71,73,75,77,79,81,83,85,87,89,91,93,95,97,99,101,103,105,-1,-1,107,109,111,113,115,117,119,121,-1,-1,-1,-1,-1,-1,-1,-1,-1,-1,-1,-1,-1,-1,-1,-1,-1,-1,-1,-1,-1,-1,-1,-1,-1,-1,-1,-1,-1,-1,-1,-1,-1,-1,-1,-1,-1,-1,-1,-1,-1,-1,-1,-1,-1,-1,-1,-1,-1,-1,-1,-1,-1,-1,-1,-1,-1,-1,-1,-1],"loss_changes":[2.6923117E8,8.899045E7,3.2729805E8,3.5404864E7,1.1745773E9,4.97408E7,3.019991E8,1.2952568E8,3.1959712E7,6.9068646E8,6.273681E7,4.644643E7,6.161053E6,3.8615782E8,7.4668664E7,5.296077E7,2.8599344E8,4.211529E7,1.3082907E8,2.087968E8,3.3089274E7,9.291984E6,6.075529E7,2.2345145E6,3.6020256E7,1.900712E6,5.9655985E6,1.4234635E8,5.324901E8,2.4202429E8,7.1342E7,5.0948816E7,7.4929944E7,3.7853773E8,1.2457619E8,2.3445066E8,2.8648512E7,5.9880064E7,1.8703758E7,2.7020173E8,4.4954015E6,2.1374775E6,3.684528E7,5.214504E6,5.398212E6,6.5525996E7,2.7303584E7,3.869585E5,5.626879E5,2.84721E5,2.9942656E7,8.71775E3,1.3289535E6,0E0,0E0,1.2913811E8,1.0192005E8,6.841721E8,6.469692E8,6.6107024E7,2.0875565E8,4.497402E7,6.398675E7,0E0,0E0,0E0,0E0,0E0,0E0,0E0,0E0,0E0,0E0,0E0,0E0,0E0,0E0,0E0,0E0,0E0,0E0,0E0,0E0,0E0,0E0,0E0,0E0,0E0,0E0,0E0,0E0,0E0,0E0,0E0,0E0,0E0,0E0,0E0,0E0,0E0,0E0,0E0,0E0,0E0,0E0,0E0,0E0,0E0,0E0,0E0,0E0,0E0,0E0,0E0,0E0,0E0,0E0,0E0,0E0,0E0,0E0,0E0,0E0],"parents":[2147483647,0,0,1,1,2,2,3,3,4,4,5,5,6,6,7,7,8,8,9,9,10,10,11,11,12,12,13,13,14,14,15,15,16,16,17,17,18,18,19,19,20,20,21,21,22,22,23,23,24,24,25,25,26,26,27,27,28,28,29,29,30,30,31,31,32,32,33,33,34,34,35,35,36,36,37,37,38,38,39,39,40,40,41,41,42,42,43,43,44,44,45,45,46,46,47,47,48,48,49,49,50,50,51,51,52,52,55,55,56,56,57,57,58,58,59,59,60,60,61,61,62,62],"right_children":[2,4,6,8,10,12,14,16,18,20,22,24,26,28,30,32,34,36,38,40,42,44,46,48,50,52,54,56,58,60,62,64,66,68,70,72,74,76,78,80,82,84,86,88,90,92,94,96,98,100,102,104,106,-1,-1,108,110,112,114,116,118,120,122,-1,-1,-1,-1,-1,-1,-1,-1,-1,-1,-1,-1,-1,-1,-1,-1,-1,-1,-1,-1,-1,-1,-1,-1,-1,-1,-1,-1,-1,-1,-1,-1,-1,-1,-1,-1,-1,-1,-1,-1,-1,-1,-1,-1,-1,-1,-1,-1,-1,-1,-1,-1,-1,-1,-1,-1,-1,-1,-1,-1],"split_conditions":[3.071724E2,2.58869E3,7.529E1,2.46499E3,2.36204E3,1E-2,6.94E0,2.33408E3,1.2271E2,2.59612E3,2.2204E2,1.6948E2,1.42466E3,2.184E2,7.3023E2,2.26142E3,2.33782E3,2.37338E3,2.37338E3,7.1775E2,1.6239E2,2.48541E3,2.61515E3,3.4E-1,3.9856E2,2.0464E2,1.6733E2,2.54256E3,6.6696E2,6.2729E2,1.2885538E3,7.71E0,2.372E1,6.794E1,6.8413E2,2.0662225E2,5.4101E2,1E-2,1.596607E2,6.5667E2,1E-2,1E-2,1.16E0,1E-1,1.7706E2,7.1086E2,5.4669E2,1.5812E2,1.5812E2,1.19504E3,6.3948E2,2.3488E2,1.1299E2,2.0689659E2,3.1117903E1,2.13441E3,6.2128E2,5.4581E2,2.59938E3,9.8902E2,2.33087E3,5.2425E2,8.5477E2,-1.5763666E1,-3.5264351E0,4.6463165E1,-1.7287935E1,-4.8491726E0,1.2732886E2,8.935666E0,-8.758344E0,5.1546047E1,-1.6755846E1,-2.9999678E0,-1.2660541E1,-8.5701E1,-1.4919139E1,-1.7900978E1,3.1282904E0,1.07070595E2,2.958073E2,-8.303616E1,4.6534295E0,-3.0917791E1,2.8611174E0,-1.8239359E2,-5.7213964E0,7.698189E1,2.2458279E1,5.6041613E0,2.0282084E1,-8.430985E0,1.7096825E1,-4.8605223E0,-1.856993E1,-6.499397E0,-1.7511154E1,1.0375863E1,1.8338944E0,2.4692646E1,4.3925304E1,-3.5288948E1,-6.8708224E0,2.6291544E1,3.0961546E1,-4.1605897E0,9.09114E0,-3.546375E0,-1.6130245E1,-2.0036198E1,4.403509E1,-6.287943E0,1.3772433E1,2.3608696E0,-2.7269266E1,1.3618884E1,3.7859196E1,-5.7486434E0,6.356583E0,6.488469E0,-2.9933825E0,-1.3577358E1,-3.3820329E0],"split_indices":[7,5,3,5,3,2,2,5,1,5,4,6,6,6,6,5,5,3,3,6,0,3,5,1,4,6,0,5,6,5,7,0,0,1,6,7,4,2,7,6,2,2,2,2,6,4,6,6,6,6,4,0,0,0,0,5,4,4,5,4,5,4,4,0,0,0,0,0,0,0,0,0,0,0,0,0,0,0,0,0,0,0,0,0,0,0,0,0,0,0,0,0,0,0,0,0,0,0,0,0,0,0,0,0,0,0,0,0,0,0,0,0,0,0,0,0,0,0,0,0,0,0,0],"split_type":[0,0,0,0,0,0,0,0,0,0,0,0,0,0,0,0,0,0,0,0,0,0,0,0,0,0,0,0,0,0,0,0,0,0,0,0,0,0,0,0,0,0,0,0,0,0,0,0,0,0,0,0,0,0,0,0,0,0,0,0,0,0,0,0,0,0,0,0,0,0,0,0,0,0,0,0,0,0,0,0,0,0,0,0,0,0,0,0,0,0,0,0,0,0,0,0,0,0,0,0,0,0,0,0,0,0,0,0,0,0,0,0,0,0,0,0,0,0,0,0,0,0,0],"sum_hessian":[6.687539E6,1.816735E6,4.870804E6,1.709741E6,1.06994E5,4.463E4,4.826174E6,1.556057E6,1.53684E5,4.779E3,1.02215E5,4.099E4,3.64E3,3.313558E6,1.512616E6,1.397857E6,1.582E5,1.33205E5,2.0479E4,3.583E3,1.196E3,1.2458E4,8.9757E4,4.804E3,3.6186E4,3.564E3,7.6E1,3.92459E5,2.921099E6,6.06009E5,9.06607E5,1.356043E6,4.1814E4,7.799E3,1.50401E5,2.0216E4,1.12989E5,4.841E3,1.5638E4,3.259E3,3.24E2,7.54E2,4.42E2,6.45E2,1.1813E4,3.6353E4,5.3404E4,1.203E3,3.601E3,6.08E2,3.5578E4,3.76E2,3.188E3,2.6E1,5E1,3.80979E5,1.148E4,9.80208E5,1.940891E6,5.1307E4,5.54702E5,6.84985E5,2.21622E5,3.1344E4,1.324699E6,1.73E3,4.0084E4,3.918E3,3.881E3,9.1604E4,5.8797E4,6.83E3,1.3386E4,4.8127E4,6.4862E4,3.227E3,1.614E3,6.547E3,9.091E3,9.76E2,2.283E3,6.5E1,2.59E2,2.53E2,5.01E2,2.65E2,1.77E2,3.66E2,2.79E2,3.036E3,8.777E3,1.6984E4,1.9369E4,3.0544E4,2.286E4,7.27E2,4.76E2,9.38E2,2.663E3,8.5E1,5.23E2,3.185E4,3.728E3,2.83E2,9.3E1,9.85E2,2.203E3,2.81727E5,9.9252E4,3.038E3,8.442E3,1.89742E5,7.90466E5,1.872134E6,6.8757E4,3.7426E4,1.3881E4,3.53531E5,2.01171E5,4.8447E4,6.36538E5,1.1158E5,1.10042E5],"tree_param":{"num_deleted":"0","num_feature":"8","num_nodes":"123","size_leaf_vector":"1"}},{"base_weights":[5.577238E-4,-2.4980216E0,1.4832958E1,-1.2597308E1,1.13108136E-1,1.3730679E1,2.7535785E2,-3.0924313E0,-4.0616646E1,1.7566416E1,-5.4691176E0,-1.5432319E1,2.215131E1,1.0246578E2,5.8908057E2,5.7080827E0,-2.1748716E1,-6.0085773E1,3.2689435E0,3.4248993E1,4.831616E0,1.4427219E1,-9.776981E0,-1.5747517E2,-1.1375392E1,5.3719765E1,9.011793E0,2.2330782E2,-8.133588E1,1.2272603E3,-2.222553E1,-6.5809913E0,3.6649586E1,-6.443384E1,-1.4234132E1,2.4554922E2,-6.305028E1,4.9587048E1,-1.075958E2,3.7041962E0,6.3696594E1,2.6717997E1,-1.5034442E0,-8.318344E0,5.885511E1,-2.0592415E1,-5.2244806E0,-1.7695697E2,-1.1767837E2,-4.4037685E1,3.959445E0,-6.2795937E1,7.200406E1,-8.031596E0,3.298994E1,2.4554762E2,-1.8681398E1,-1.5441391E2,-1.23326235E1,1.3802288E3,2.981223E2,-9.500451E1,1.1851094E2,8.76827E0,-6.260589E0,-5.660827E0,2.3427834E1,-1.55425625E1,-5.391949E1,-1.2782605E1,3.08626E-1,9.471142E1,4.5233124E1,-3.0827425E1,-1.3234907E1,9.060227E1,6.873284E0,-7.4761986E1,-2.4434868E1,-1.3386719E0,2.6897938E1,5.737611E1,1.5579113E1,-1.6677517E0,2.3277636E1,-6.3094697E0,4.0220175E0,3.1401582E0,-1.8032059E1,8.592071E1,1.0036327E1,-2.2526333E0,-1.0670645E1,7.6590524E0,-2.117151E0,-1.6907994E0,-5.3696518E1,9.213334E0,-3.5998096E1,-9.629705E0,-4.9164177E1,2.0669468E1,-7.0337005E0,-3.2367523E1,6.61392E1,3.4232548E1,9.660714E-1,-2.6333706E0,1.3960612E2,1.4810737E1,-1.6667627E1,8.309741E1,3.905172E1,1.8908464E1,-4.462298E1,-2.156071E1,-5.340762E1,8.006227E0,-1.1687911E1,4.518566E2,3.7764963E2,1.2679925E1,-5.3991047E1,7.915611E1,9.551906E0],"categories":[],"categories_nodes":[],"categories_segments":[],"categories_sizes":[],"default_left":[0,0,0,0,0,0,0,0,0,0,0,0,0,0,0,0,0,0,0,0,0,0,0,0,0,0,0,0,0,0,0,0,0,0,0,0,0,0,0,0,0,0,0,0,0,0,0,0,0,0,0,0,0,0,0,0,0,0,0,0,0,0,0,0,0,0,0,0,0,0,0,0,0,0,0,0,0,0,0,0,0,0,0,0,0,0,0,0,0,0,0,0,0,0,0,0,0,0,0,0,0,0,0,0,0,0,0,0,0,0,0,0,0,0,0,0,0,0,0,0,0,0,0,0,0],"id":10,"left_children":[1,3,5,7,9,11,13,15,17,19,21,23,25,27,29,31,33,35,37,39,41,43,45,47,49,51,53,55,57,59,61,63,65,67,69,71,73,75,77,79,81,83,85,87,89,91,93,95,97,99,101,103,105,107,109,111,113,115,117,119,-1,121,123,-1,-1,-1,-1,-1,-1,-1,-1,-1,-1,-1,-1,-1,-1,-1,-1,-1,-1,-1,-1,-1,-1,-1,-1,-1,-1,-1,-1,-1,-1,-1,-1,-1,-1,-1,-1,-1,-1,-1,-1,-1,-1,-1,-1,-1,-1,-1,-1,-1,-1,-1,-1,-1,-1,-1,-1,-1,-1,-1,-1,-1,-1],"loss_changes":[2.4783982E8,1.5092942E8,2.7686736E8,3.1313216E8,4.4306867E8,2.357658E8,2.2026317E8,1.4414643E8,2.5446426E8,2.341262E8,2.9532528E8,1.239541E8,3.0900755E8,5.821089E7,5.62975E8,2.2683349E8,9.026217E7,1.8693613E8,4.6998006E8,4.291113E8,8.665227E7,6.1971155E8,1.3945731E8,4.610128E6,1.04748824E8,4.6644224E8,2.149703E8,8.513216E6,5.2424225E6,2.3847424E7,7.57034E6,2.1844688E8,3.9018554E8,6.1309296E7,1.0362685E8,1.3130288E7,1.5360826E8,4.3467366E8,9.983859E7,1.6437904E8,3.6454707E8,2.3036678E8,1.4112192E8,3.9459683E8,1.2001892E9,1.6440586E8,1.1235099E8,1.39388E6,6.7913E5,9.5594136E7,2.532767E8,3.7938106E8,5.480756E8,1.0863226E8,3.1697786E8,5.21704E6,1.4334338E6,9.71454E5,5.579382E5,4.587392E6,0E0,5.6876395E6,3.1660522E6,0E0,0E0,0E0,0E0,0E0,0E0,0E0,0E0,0E0,0E0,0E0,0E0,0E0,0E0,0E0,0E0,0E0,0E0,0E0,0E0,0E0,0E0,0E0,0E0,0E0,0E0,0E0,0E0,0E0,0E0,0E0,0E0,0E0,0E0,0E0,0E0,0E0,0E0,0E0,0E0,0E0,0E0,0E0,0E0,0E0,0E0,0E0,0E0,0E0,0E0,0E0,0E0,0E0,0E0,0E0,0E0,0E0,0E0,0E0,0E0,0E0,0E0],"parents":[2147483647,0,0,1,1,2,2,3,3,4,4,5,5,6,6,7,7,8,8,9,9,10,10,11,11,12,12,13,13,14,14,15,15,16,16,17,17,18,18,19,19,20,20,21,21,22,22,23,23,24,24,25,25,26,26,27,27,28,28,29,29,30,30,31,31,32,32,33,33,34,34,35,35,36,36,37,37,38,38,39,39,40,40,41,41,42,42,43,43,44,44,45,45,46,46,47,47,48,48,49,49,50,50,51,51,52,52,53,53,54,54,55,55,56,56,57,57,58,58,59,59,61,61,62,62],"right_children":[2,4,6,8,10,12,14,16,18,20,22,24,26,28,30,32,34,36,38,40,42,44,46,48,50,52,54,56,58,60,62,64,66,68,70,72,74,76,78,80,82,84,86,88,90,92,94,96,98,100,102,104,106,108,110,112,114,116,118,120,-1,122,124,-1,-1,-1,-1,-1,-1,-1,-1,-1,-1,-1,-1,-1,-1,-1,-1,-1,-1,-1,-1,-1,-1,-1,-1,-1,-1,-1,-1,-1,-1,-1,-1,-1,-1,-1,-1,-1,-1,-1,-1,-1,-1,-1,-1,-1,-1,-1,-1,-1,-1,-1,-1,-1,-1,-1,-1,-1,-1,-1,-1,-1,-1],"split_conditions":[1.5756594E3,3.9626E2,2.71115E3,2.33103E3,6.6183E2,4.6133E2,2.8257E2,8.4644E2,2.49072E3,1E-2,6.6257E2,6.504E1,7.2398E2,8.8848E2,2.9348E2,7.4033E2,5.512E1,9.6207E2,3.2871E2,6.8618E2,6.2729E2,2.27197E3,8.6658E2,2.5892E2,4.572E2,5.3906E2,2.19431E3,7.8858E2,1.5195E2,8.7682E2,5.3826E2,1.09002E3,1.907E3,1.49752E3,1.24142E3,2.0119E2,2.38821E3,2.36658E3,2.36204E3,1.2288456E3,4.1316E2,3.65273E2,2.03812E3,5.864E1,2.33103E3,2.3251E2,7.9172E2,1.825528E3,1.21159E3,2.1937268E3,5.6326E2,5.3E-1,1.18566E3,2.0501E2,1.32943E3,2.7744E2,2.8007E2,2.5739E2,2.849E1,8.7145E2,2.981223E2,1.05028E3,5.4669E2,8.76827E0,-6.260589E0,-5.660827E0,2.3427834E1,-1.55425625E1,-5.391949E1,-1.2782605E1,3.08626E-1,9.471142E1,4.5233124E1,-3.0827425E1,-1.3234907E1,9.060227E1,6.873284E0,-7.4761986E1,-2.4434868E1,-1.3386719E0,2.6897938E1,5.737611E1,1.5579113E1,-1.6677517E0,2.3277636E1,-6.3094697E0,4.0220175E0,3.1401582E0,-1.8032059E1,8.592071E1,1.0036327E1,-2.2526333E0,-1.0670645E1,7.6590524E0,-2.117151E0,-1.6907994E0,-5.3696518E1,9.213334E0,-3.5998096E1,-9.629705E0,-4.9164177E1,2.0669468E1,-7.0337005E0,-3.2367523E1,6.61392E1,3.4232548E1,9.660714E-1,-2.6333706E0,1.3960612E2,1.4810737E1,-1.6667627E1,8.309741E1,3.905172E1,1.8908464E1,-4.462298E1,-2.156071E1,-5.340762E1,8.006227E0,-1.1687911E1,4.518566E2,3.7764963E2,1.2679925E1,-5.3991047E1,7.915611E1,9.551906E0],"split_indices":[7,6,5,3,6,4,6,4,5,2,4,5,4,4,6,4,0,5,6,4,5,3,4,0,6,3,5,3,0,4,6,3,3,4,5,6,3,3,3,7,6,7,5,1,3,0,6,7,3,7,5,2,6,1,4,0,6,3,1,4,0,4,6,0,0,0,0,0,0,0,0,0,0,0,0,0,0,0,0,0,0,0,0,0,0,0,0,0,0,0,0,0,0,0,0,0,0,0,0,0,0,0,0,0,0,0,0,0,0,0,0,0,0,0,0,0,0,0,0,0,0,0,0,0,0],"split_type":[0,0,0,0,0,0,0,0,0,0,0,0,0,0,0,0,0,0,0,0,0,0,0,0,0,0,0,0,0,0,0,0,0,0,0,0,0,0,0,0,0,0,0,0,0,0,0,0,0,0,0,0,0,0,0,0,0,0,0,0,0,0,0,0,0,0,0,0,0,0,0,0,0,0,0,0,0,0,0,0,0,0,0,0,0,0,0,0,0,0,0,0,0,0,0,0,0,0,0,0,0,0,0,0,0,0,0,0,0,0,0,0,0,0,0,0,0,0,0,0,0,0,0,0,0],"sum_hessian":[6.687539E6,5.723408E6,9.64131E5,1.175772E6,4.547636E6,9.6007E5,4.061E3,8.7795E5,2.97822E5,1.102033E6,3.445603E6,2.15104E5,7.44966E5,2.619E3,1.442E3,5.96548E5,2.81402E5,2.063E5,9.1522E4,4.7707E5,6.24963E5,6.13248E5,2.832355E6,5.972E3,2.09132E5,2.18942E5,5.26024E5,1.58E3,1.039E3,7.05E2,7.37E2,4.26969E5,1.69579E5,4.2123E4,2.39279E5,1.981E3,2.04319E5,6.4553E4,2.6969E4,2.34173E5,2.42897E5,1.40289E5,4.84674E5,4.05597E5,2.07651E5,8.39038E5,1.993317E6,4.007E3,1.965E3,6.6816E4,1.42316E5,2.9697E4,1.89245E5,3.07475E5,2.18549E5,1.447E3,1.33E2,5.04E2,5.35E2,4.23E2,2.82E2,4.86E2,2.51E2,1.21773E5,3.05196E5,7.2481E4,9.7098E4,3.7967E4,4.156E3,8.3691E4,1.55588E5,1.137E3,8.44E2,6.5968E4,1.38351E5,6.169E3,5.8384E4,4.202E3,2.2767E4,2.13856E5,2.0317E4,2.0512E4,2.22385E5,8.5833E4,5.4456E4,2.09841E5,2.74833E5,2.97635E5,1.07962E5,2.0851E4,1.868E5,4.47818E5,3.9122E5,1.12102E5,1.881215E6,4.7E1,3.96E3,3E1,1.935E3,6.0764E4,6.052E3,4.2235E4,1.00081E5,2.5619E4,4.078E3,1.17388E5,7.1857E4,3.06992E5,4.83E2,1.84434E5,3.4115E4,1.136E3,3.11E2,8.2E1,5.1E1,1.13E2,3.91E2,2.17E2,3.18E2,2.02E2,2.21E2,1.86E2,3E2,9.3E1,1.58E2],"tree_param":{"num_deleted":"0","num_feature":"8","num_nodes":"125","size_leaf_vector":"1"}},{"base_weights":[6.1491126E-4,1.135817E0,-2.298545E1,-4.0881637E-1,7.527726E1,1.0646729E1,-5.6135395E1,-4.1886644E0,6.73354E0,1.9866397E2,2.1544802E0,-6.129027E0,2.1868506E2,-9.8546394E1,-3.0893528E1,3.4289703E0,-7.712508E0,8.881691E0,-3.8578938E1,-4.3636013E1,3.400685E2,6.629382E1,-1.8108788E1,-4.294207E1,4.158584E1,4.3506927E1,4.0701407E2,-6.6253975E1,-2.0483473E2,-3.8524532E1,2.0855705E2,-4.140368E0,3.2961353E1,-5.1296477E0,-2.3968143E1,1.2444456E1,-1.5683062E1,-2.476242E1,-7.60853E1,-6.6172966E1,4.985453E1,2.7920407E2,7.144483E2,7.0258904E0,1.5682608E2,-4.9994442E1,2.3421072E1,6.508511E1,-7.4876205E1,1.0225318E2,-1.4173546E1,-7.547732E1,1.6374374E2,6.17878E2,-3.3229113E0,-5.1247555E1,-1.3692543E2,-2.9230786E2,-1.4367967E2,-7.952047E1,-1.791401E1,4.114455E0,3.501874E2,-3.2431493E0,8.650146E0,2.467325E1,-8.8618356E-1,-1.9320949E0,1.9454918E1,-7.65177E0,3.4584995E1,4.1643453E0,-1.8870564E1,7.3435497E0,-5.893113E0,-9.527913E0,1.623572E1,-2.8475456E1,3.5977619E0,7.382689E1,-2.169814E1,-3.4341625E1,2.8172777E1,4.4673645E1,1.3711057E2,2.91198E2,4.5877872E1,5.202654E1,-1.1887621E1,2.9440212E-1,6.553384E1,-2.0099648E1,6.0092216E0,-1.5251634E1,2.5684713E1,1.0388892E2,1.2977833E1,-1.6705357E1,-4.2953808E1,1.9881824E1,1.1198061E2,1.5310391E1,-1.8607357E1,-6.998647E1,-4.420606E0,2.5823385E1,1.3484192E2,2.6526825E2,6.3916714E1,4.7269245E1,-1.2022275E1,-1.1736893E1,-2.3142834E1,-4.7161983E1,5.1979984E1,-5.1414627E1,-1.0472213E2,-4.741034E1,-3.0362967E1,-3.2958813E1,-8.24451E0,9.213606E0,-1.1770124E1,2.9354847E1,-5.4675644E1,1.4199059E2,-7.239916E1],"categories":[],"categories_nodes":[],"categories_segments":[],"categories_sizes":[],"default_left":[0,0,0,0,0,0,0,0,0,0,0,0,0,0,0,0,0,0,0,0,0,0,0,0,0,0,0,0,0,0,0,0,0,0,0,0,0,0,0,0,0,0,0,0,0,0,0,0,0,0,0,0,0,0,0,0,0,0,0,0,0,0,0,0,0,0,0,0,0,0,0,0,0,0,0,0,0,0,0,0,0,0,0,0,0,0,0,0,0,0,0,0,0,0,0,0,0,0,0,0,0,0,0,0,0,0,0,0,0,0,0,0,0,0,0,0,0,0,0,0,0,0,0,0,0,0,0],"id":11,"left_children":[1,3,5,7,9,11,13,15,17,19,21,23,25,27,29,31,33,35,37,39,41,43,45,47,49,51,53,55,57,59,61,63,65,67,69,71,73,75,77,79,81,83,85,87,89,91,93,95,97,99,101,103,105,107,109,111,113,115,117,119,121,123,125,-1,-1,-1,-1,-1,-1,-1,-1,-1,-1,-1,-1,-1,-1,-1,-1,-1,-1,-1,-1,-1,-1,-1,-1,-1,-1,-1,-1,-1,-1,-1,-1,-1,-1,-1,-1,-1,-1,-1,-1,-1,-1,-1,-1,-1,-1,-1,-1,-1,-1,-1,-1,-1,-1,-1,-1,-1,-1,-1,-1,-1,-1,-1,-1],"loss_changes":[1.7450357E8,7.2982285E8,3.508957E8,1.6853574E8,1.1734413E9,5.452441E8,1.696786E8,1.0958327E8,2.102923E8,1.6581742E9,1.0613768E8,2.5394851E8,3.8459283E8,2.0296627E8,1.8157262E8,2.886277E8,1.1718965E8,1.8051978E8,5.067099E7,3.7583604E7,6.961761E8,1.0519804E8,8.218012E7,2.8153936E8,2.1299437E8,8.643664E7,4.8610093E8,4.8097344E7,7.367302E7,8.13645E7,8.886231E7,2.2604512E8,4.6625194E8,2.2090547E8,8.194872E7,1.9499984E8,4.1558804E7,3.944564E7,4.366635E7,2.7636652E7,2.5095144E7,6.090472E8,6.146015E8,9.199349E7,7.449147E7,4.180328E7,1.2449311E8,1.1427374E8,8.256262E7,2.940244E8,1.0237939E8,2.9108472E7,6.6646456E7,3.9994726E8,1.1287966E7,1.174444E7,5.0003424E7,3.8854816E7,4.92944E6,5.086517E7,6.643464E7,2.1976466E7,1.3214498E8,0E0,0E0,0E0,0E0,0E0,0E0,0E0,0E0,0E0,0E0,0E0,0E0,0E0,0E0,0E0,0E0,0E0,0E0,0E0,0E0,0E0,0E0,0E0,0E0,0E0,0E0,0E0,0E0,0E0,0E0,0E0,0E0,0E0,0E0,0E0,0E0,0E0,0E0,0E0,0E0,0E0,0E0,0E0,0E0,0E0,0E0,0E0,0E0,0E0,0E0,0E0,0E0,0E0,0E0,0E0,0E0,0E0,0E0,0E0,0E0,0E0,0E0,0E0,0E0],"parents":[2147483647,0,0,1,1,2,2,3,3,4,4,5,5,6,6,7,7,8,8,9,9,10,10,11,11,12,12,13,13,14,14,15,15,16,16,17,17,18,18,19,19,20,20,21,21,22,22,23,23,24,24,25,25,26,26,27,27,28,28,29,29,30,30,31,31,32,32,33,33,34,34,35,35,36,36,37,37,38,38,39,39,40,40,41,41,42,42,43,43,44,44,45,45,46,46,47,47,48,48,49,49,50,50,51,51,52,52,53,53,54,54,55,55,56,56,57,57,58,58,59,59,60,60,61,61,62,62],"right_children":[2,4,6,8,10,12,14,16,18,20,22,24,26,28,30,32,34,36,38,40,42,44,46,48,50,52,54,56,58,60,62,64,66,68,70,72,74,76,78,80,82,84,86,88,90,92,94,96,98,100,102,104,106,108,110,112,114,116,118,120,122,124,126,-1,-1,-1,-1,-1,-1,-1,-1,-1,-1,-1,-1,-1,-1,-1,-1,-1,-1,-1,-1,-1,-1,-1,-1,-1,-1,-1,-1,-1,-1,-1,-1,-1,-1,-1,-1,-1,-1,-1,-1,-1,-1,-1,-1,-1,-1,-1,-1,-1,-1,-1,-1,-1,-1,-1,-1,-1,-1,-1,-1,-1,-1,-1,-1],"split_conditions":[2.60486E3,2.58483E3,4.7577E2,9.5768317E2,7.1775E2,4.6851E2,7.5326E2,9.771E1,2.56476E3,7.275E2,7.4196E2,2.6847E3,2.64128E3,6.6696E2,2.69964E3,2.24853E3,2.36932E3,1.268E1,2.6627E3,1.6733E2,7.112E2,7.0738E2,1.30737E3,2.61515E3,2.9348E2,7.852E2,2.3575E3,8.523E1,5.2188E2,9.2053E2,1.4468E2,9.734E1,6.1514E2,2.50925E3,1.47318E3,1.46594E3,2.3879E2,1.3058E3,2.09E0,1.18414E3,5.1969E2,2.11523E3,2.33514E3,3.3028E2,7.3023E2,2.50209E3,8.4663477E2,7.8858E2,7.24E1,2.8257E2,2.07844E3,1.45046E3,2.3416E2,1.8821E2,2.36204E3,2.6847E3,2.118693E3,4.325E1,2.42481E3,8.5034E2,7.5139E2,2.2867E3,2.4036E2,-3.2431493E0,8.650146E0,2.467325E1,-8.8618356E-1,-1.9320949E0,1.9454918E1,-7.65177E0,3.4584995E1,4.1643453E0,-1.8870564E1,7.3435497E0,-5.893113E0,-9.527913E0,1.623572E1,-2.8475456E1,3.5977619E0,7.382689E1,-2.169814E1,-3.4341625E1,2.8172777E1,4.4673645E1,1.3711057E2,2.91198E2,4.5877872E1,5.202654E1,-1.1887621E1,2.9440212E-1,6.553384E1,-2.0099648E1,6.0092216E0,-1.5251634E1,2.5684713E1,1.0388892E2,1.2977833E1,-1.6705357E1,-4.2953808E1,1.9881824E1,1.1198061E2,1.5310391E1,-1.8607357E1,-6.998647E1,-4.420606E0,2.5823385E1,1.3484192E2,2.6526825E2,6.3916714E1,4.7269245E1,-1.2022275E1,-1.1736893E1,-2.3142834E1,-4.7161983E1,5.1979984E1,-5.1414627E1,-1.0472213E2,-4.741034E1,-3.0362967E1,-3.2958813E1,-8.24451E0,9.213606E0,-1.1770124E1,2.9354847E1,-5.4675644E1,1.4199059E2,-7.239916E1],"split_indices":[5,5,6,7,6,6,6,0,3,4,6,5,5,6,5,3,3,2,3,0,6,4,6,5,6,4,3,1,3,6,0,0,4,5,6,4,6,4,2,3,6,3,3,4,6,3,7,3,1,6,3,3,0,0,3,5,7,1,3,4,4,3,0,0,0,0,0,0,0,0,0,0,0,0,0,0,0,0,0,0,0,0,0,0,0,0,0,0,0,0,0,0,0,0,0,0,0,0,0,0,0,0,0,0,0,0,0,0,0,0,0,0,0,0,0,0,0,0,0,0,0,0,0,0,0,0,0],"split_type":[0,0,0,0,0,0,0,0,0,0,0,0,0,0,0,0,0,0,0,0,0,0,0,0,0,0,0,0,0,0,0,0,0,0,0,0,0,0,0,0,0,0,0,0,0,0,0,0,0,0,0,0,0,0,0,0,0,0,0,0,0,0,0,0,0,0,0,0,0,0,0,0,0,0,0,0,0,0,0,0,0,0,0,0,0,0,0,0,0,0,0,0,0,0,0,0,0,0,0,0,0,0,0,0,0,0,0,0,0,0,0,0,0,0,0,0,0,0,0,0,0,0,0,0,0,0,0],"sum_hessian":[6.687539E6,6.372809E6,3.1473E5,6.242751E6,1.30058E5,1.56229E5,1.58501E5,4.082322E6,2.160429E6,4.8395E4,8.1663E4,1.44572E5,1.1657E4,5.9137E4,9.9364E4,1.291163E6,2.791159E6,2.062645E6,9.7784E4,1.7835E4,3.056E4,1.9605E4,6.2058E4,8.1609E4,6.2963E4,6.04E3,5.617E3,4.5358E4,1.3779E4,9.6296E4,3.068E3,1.027746E6,2.63417E5,2.408477E6,3.82682E5,1.801381E6,2.61264E5,7.1461E4,2.6323E4,1.4371E4,3.464E3,2.6288E4,4.272E3,1.1849E4,7.756E3,3.5105E4,2.6953E4,1.862E4,6.2989E4,3.0154E4,3.2809E4,3.036E3,3.004E3,3.71E3,1.907E3,3.7415E4,7.943E3,5.668E3,8.111E3,3.2215E4,6.4081E4,1.256E3,1.812E3,8.54829E5,1.72917E5,1.11043E5,1.52374E5,2.364198E6,4.4279E4,3.78503E5,4.179E3,1.767676E6,3.3705E4,2.3452E4,2.37812E5,6.5639E4,5.822E3,2.1686E4,4.637E3,2.77E2,1.4094E4,7.32E2,2.732E3,1.5173E4,1.1115E4,2.933E3,1.339E3,2.594E3,9.255E3,2.198E3,5.558E3,2.8246E4,6.859E3,1.2285E4,1.4668E4,1.34E3,1.728E4,4.9174E4,1.3815E4,2.6621E4,3.533E3,1.3886E4,1.8923E4,8.43E2,2.193E3,2.363E3,6.41E2,2.237E3,1.473E3,3.54E2,1.553E3,2.5485E4,1.193E4,7.456E3,4.87E2,1.812E3,3.856E3,6.06E3,2.051E3,2.0349E4,1.1866E4,1.9532E4,4.4549E4,8.36E2,4.2E2,1.5E3,3.12E2],"tree_param":{"num_deleted":"0","num_feature":"8","num_nodes":"127","size_leaf_vector":"1"}},{"base_weights":[5.933657E-4,-6.1099415E1,4.1059008E-1,-8.489003E1,-3.5137466E1,-4.6369736E1,9.5353884E-1,3.1177452E1,-9.881248E1,-2.4750177E1,-7.699206E1,-9.0451866E1,-2.5683592E1,9.166535E0,-2.1601691E0,-3.0134575E1,1.2790028E2,-1.26007484E2,-7.0512474E1,-3.4695095E1,-1.0524677E1,-7.827242E1,3.4514902E2,9.9563705E1,-9.8359215E1,-3.0399158E1,1.16538025E2,1.6639347E1,-1.0539442E1,-1.2344396E1,2.7749736E0,-2.3604383E1,-1.6980243E2,-1.04163E2,1.8038625E2,-3.1836586E1,-1.4505617E2,-7.505219E1,-2.7380316E1,-1.9422548E1,-4.6561905E1,-9.561007E0,-1.061907E2,-7.533788E1,-1.6214093E2,1.3871075E2,7.250305E1,1.7143974E2,1.2827023E1,-1.0502756E2,9.468899E0,6.4884544E1,-3.7575138E1,1.9853386E2,-5.224102E0,8.588002E0,4.363067E1,-1.2549297E1,9.0305E1,1.939095E1,-1.533278E1,-1.243205E1,7.814095E0,-1.468558E1,1.409501E1,2.3954779E1,-6.7417534E1,-3.5079197E1,4.499882E1,8.473209E1,1.1051462E1,-1.4747645E1,3.4136257E0,-5.553807E1,-4.1547256E1,-2.5843912E1,-1.9132238E1,-8.586201E0,3.3460681E0,-5.6114817E0,-2.156041E1,-1.2356496E1,-1.5267476E1,2.2531471E1,-2.897114E0,-3.5940807E1,-9.124755E0,-2.4198517E1,-1.889174E1,-1.8851482E1,-5.124719E1,9.843107E1,4.5806385E1,-3.6733932E1,3.083748E1,-3.5252705E1,-2.4283234E1,-2.4558445E1,1.8561823E1,3.750652E1,-3.9635944E1,-1.6865524E1,1.8584844E0,8.902669E1,5.823274E1,-1.9473684E1,4.838849E0,-3.4586256E0,4.5544143E0,1.4915137E1,-2.3787453E1,-3.0771153E0,-2.4689613E1,3.2721539E0,5.469004E1,1.9947834E1,4.301133E-2,-8.87327E0,-1.8924166E0,-7.1219625E0,2.0804965E0,7.876584E0,-2.936524E-2],"categories":[],"categories_nodes":[],"categories_segments":[],"categories_sizes":[],"default_left":[0,0,0,0,0,0,0,0,0,0,0,0,0,0,0,0,0,0,0,0,0,0,0,0,0,0,0,0,0,0,0,0,0,0,0,0,0,0,0,0,0,0,0,0,0,0,0,0,0,0,0,0,0,0,0,0,0,0,0,0,0,0,0,0,0,0,0,0,0,0,0,0,0,0,0,0,0,0,0,0,0,0,0,0,0,0,0,0,0,0,0,0,0,0,0,0,0,0,0,0,0,0,0,0,0,0,0,0,0,0,0,0,0,0,0,0,0,0,0,0,0,0,0],"id":12,"left_children":[1,3,5,7,9,11,13,15,17,19,21,23,25,27,29,31,33,35,37,39,41,43,45,47,49,51,53,55,57,59,61,63,65,67,69,71,73,75,77,79,81,83,85,87,89,-1,-1,91,93,95,97,99,101,103,105,107,109,111,113,115,117,119,121,-1,-1,-1,-1,-1,-1,-1,-1,-1,-1,-1,-1,-1,-1,-1,-1,-1,-1,-1,-1,-1,-1,-1,-1,-1,-1,-1,-1,-1,-1,-1,-1,-1,-1,-1,-1,-1,-1,-1,-1,-1,-1,-1,-1,-1,-1,-1,-1,-1,-1,-1,-1,-1,-1,-1,-1,-1,-1,-1,-1],"loss_changes":[1.6752827E8,2.7529424E7,1.6872683E8,3.758992E7,9.265782E6,6.949824E7,1.6793069E8,1.4782094E7,1.5975344E7,2.415966E6,2.31764E6,3.6584096E7,3.4793796E7,2.6583194E8,2.3931861E8,1.3877921E6,1.1796915E7,1.8992048E7,1.991268E6,1.820884E6,6.4699175E5,1.027866E6,4.59335E4,6.063764E6,1.6804816E7,3.4334404E7,1.6624374E7,2.8443613E8,1.0060064E8,1.4739925E8,2.4577757E8,2.6127812E6,9.503289E5,5.9839675E5,1.154818E7,1.3352886E6,2.29152E6,1.146868E6,4.6728625E4,1.6413825E5,1.29496E5,5.7319312E4,6.855731E4,2.63842E5,1.11705E5,0E0,0E0,1.512775E6,5.3916465E6,6.606336E6,6.5236825E6,4.1683424E7,3.8104296E7,3.74832E5,8.5627494E5,1.33717096E8,2.2499142E8,7.7804856E7,7.084156E7,1.2126627E8,1.8260854E8,1.7482298E8,3.514949E8,0E0,0E0,0E0,0E0,0E0,0E0,0E0,0E0,0E0,0E0,0E0,0E0,0E0,0E0,0E0,0E0,0E0,0E0,0E0,0E0,0E0,0E0,0E0,0E0,0E0,0E0,0E0,0E0,0E0,0E0,0E0,0E0,0E0,0E0,0E0,0E0,0E0,0E0,0E0,0E0,0E0,0E0,0E0,0E0,0E0,0E0,0E0,0E0,0E0,0E0,0E0,0E0,0E0,0E0,0E0,0E0,0E0,0E0,0E0,0E0],"parents":[2147483647,0,0,1,1,2,2,3,3,4,4,5,5,6,6,7,7,8,8,9,9,10,10,11,11,12,12,13,13,14,14,15,15,16,16,17,17,18,18,19,19,20,20,21,21,22,22,23,23,24,24,25,25,26,26,27,27,28,28,29,29,30,30,31,31,32,32,33,33,34,34,35,35,36,36,37,37,38,38,39,39,40,40,41,41,42,42,43,43,44,44,47,47,48,48,49,49,50,50,51,51,52,52,53,53,54,54,55,55,56,56,57,57,58,58,59,59,60,60,61,61,62,62],"right_children":[2,4,6,8,10,12,14,16,18,20,22,24,26,28,30,32,34,36,38,40,42,44,46,48,50,52,54,56,58,60,62,64,66,68,70,72,74,76,78,80,82,84,86,88,90,-1,-1,92,94,96,98,100,102,104,106,108,110,112,114,116,118,120,122,-1,-1,-1,-1,-1,-1,-1,-1,-1,-1,-1,-1,-1,-1,-1,-1,-1,-1,-1,-1,-1,-1,-1,-1,-1,-1,-1,-1,-1,-1,-1,-1,-1,-1,-1,-1,-1,-1,-1,-1,-1,-1,-1,-1,-1,-1,-1,-1,-1,-1,-1,-1,-1,-1,-1,-1,-1,-1,-1,-1],"split_conditions":[5.958E1,1.8416304E3,7.867E1,2.933E1,1.7583E2,5.8978E2,9.8999E2,2.053E1,1.1421525E3,1.14754E3,3.567E2,7.529E1,1.43298E3,1.20372E3,1.74258E3,2.34583E3,6.7883725E0,5.492E1,2.7171E2,2.47204E3,2.7E-1,2.7E-1,6.92E0,5.3826E2,2.88E0,1.26E1,1.609E2,2.03812E3,2.4425374E3,5.4101E2,3.9208E2,1.5043869E2,1.8398E2,2.409E1,1.0057286E1,5.5477E2,1.7331E2,5.474E1,1E-2,1.6E-1,9.302E1,5.11E0,1.25171E3,2.7171E2,2.49974E3,1.3871075E2,7.250305E1,1.642E1,1.539E1,6.504E1,1.13616E3,4.696E1,1.27166E3,3.406E1,3.19E2,6.2128E2,1.1915E2,1.46594E3,4.2509E2,1.09002E3,3.21E0,7.5628E2,6.321E2,-1.468558E1,1.409501E1,2.3954779E1,-6.7417534E1,-3.5079197E1,4.499882E1,8.473209E1,1.1051462E1,-1.4747645E1,3.4136257E0,-5.553807E1,-4.1547256E1,-2.5843912E1,-1.9132238E1,-8.586201E0,3.3460681E0,-5.6114817E0,-2.156041E1,-1.2356496E1,-1.5267476E1,2.2531471E1,-2.897114E0,-3.5940807E1,-9.124755E0,-2.4198517E1,-1.889174E1,-1.8851482E1,-5.124719E1,9.843107E1,4.5806385E1,-3.6733932E1,3.083748E1,-3.5252705E1,-2.4283234E1,-2.4558445E1,1.8561823E1,3.750652E1,-3.9635944E1,-1.6865524E1,1.8584844E0,8.902669E1,5.823274E1,-1.9473684E1,4.838849E0,-3.4586256E0,4.5544143E0,1.4915137E1,-2.3787453E1,-3.0771153E0,-2.4689613E1,3.2721539E0,5.469004E1,1.9947834E1,4.301133E-2,-8.87327E0,-1.8924166E0,-7.1219625E0,2.0804965E0,7.876584E0,-2.936524E-2],"split_indices":[4,7,5,1,0,4,3,1,7,6,0,3,4,4,3,5,7,6,0,5,2,2,1,6,2,0,0,5,7,4,6,7,6,1,7,3,0,4,2,2,0,1,6,0,5,0,0,1,1,5,6,1,6,1,0,4,1,4,6,3,2,4,4,0,0,0,0,0,0,0,0,0,0,0,0,0,0,0,0,0,0,0,0,0,0,0,0,0,0,0,0,0,0,0,0,0,0,0,0,0,0,0,0,0,0,0,0,0,0,0,0,0,0,0,0,0,0,0,0,0,0,0,0],"split_type":[0,0,0,0,0,0,0,0,0,0,0,0,0,0,0,0,0,0,0,0,0,0,0,0,0,0,0,0,0,0,0,0,0,0,0,0,0,0,0,0,0,0,0,0,0,0,0,0,0,0,0,0,0,0,0,0,0,0,0,0,0,0,0,0,0,0,0,0,0,0,0,0,0,0,0,0,0,0,0,0,0,0,0,0,0,0,0,0,0,0,0,0,0,0,0,0,0,0,0,0,0,0,0,0,0,0,0,0,0,0,0,0,0,0,0,0,0,0,0,0,0,0,0],"sum_hessian":[6.687539E6,4.4575E4,6.642964E6,2.3259E4,2.1316E4,7.6215E4,6.566749E6,2.491E3,2.0768E4,1.7079E4,4.237E3,2.4341E4,5.1874E4,1.805197E6,4.761552E6,1.525E3,9.66E2,1.0589E4,1.0179E4,1.0051E4,7.028E3,4.225E3,1.2E1,9.72E2,2.3369E4,5.021E4,1.664E3,1.308858E6,4.96339E5,1.554227E6,3.207325E6,1.458E3,6.7E1,1.78E2,7.88E2,1.782E3,8.807E3,9.209E3,9.7E2,4.396E3,5.655E3,6.959E3,6.9E1,4.084E3,1.41E2,4E0,8E0,5.31E2,4.41E2,2.2008E4,1.361E3,3.516E3,4.6694E4,9.94E2,6.7E2,1.008138E6,3.0072E5,4.86641E5,9.698E3,1.33759E5,1.420468E6,7.9828E5,2.409045E6,1.073E3,3.85E2,1.2E1,5.5E1,1.7E2,8E0,4.6E2,3.28E2,1.272E3,5.1E2,1.236E3,7.571E3,4.639E3,4.57E3,9.4E2,3E1,4.338E3,5.8E1,2.528E3,3.127E3,7E0,6.952E3,5.8E1,1.1E1,2.851E3,1.233E3,1.2E1,1.29E2,5.5E1,4.76E2,1.76E2,2.65E2,1.4493E4,7.515E3,4.96E2,8.65E2,2.694E3,8.22E2,3.2746E4,1.3948E4,4E1,9.54E2,1.76E2,4.94E2,2.48858E5,7.5928E5,2.86533E5,1.4187E4,4.71158E5,1.5483E4,5.206E3,4.492E3,3.8802E4,9.4957E4,5.50906E5,8.69562E5,5.04006E5,2.94274E5,7.23264E5,1.685781E6],"tree_param":{"num_deleted":"0","num_feature":"8","num_nodes":"123","size_leaf_vector":"1"}},{"base_weights":[4.3431783E-4,-1.0264749E1,1.6813297E0,-3.3670526E0,-2.2310553E1,9.047473E0,-2.8298523E0,-7.9035614E1,-1.8374169E0,-4.6280437E1,-1.1619466E1,2.1012606E1,-4.290481E0,-6.234982E1,-2.0277424E0,-9.9077095E1,1.519982E0,1.3397951E1,-6.44364E0,-5.5757927E1,2.1068695E1,-1.0315743E2,-1.0233095E1,6.7332263E0,3.7252064E1,-2.3951445E0,-1.2731652E1,-9.5735535E1,-3.5797474E1,-8.8307077E-1,-3.622763E1,-8.46738E1,-2.2398088E2,2.1821587E2,-7.9678464E-1,-5.917436E0,4.2778324E1,-9.993287E0,2.103189E1,-3.4913094E1,-8.533755E1,-8.495219E1,3.19712E1,-1.961625E2,-5.238231E1,2.0332033E1,-1.4120773E1,-7.4858236E0,2.3533583E1,5.690985E1,2.1586016E1,-1.4156127E1,-1.047942E0,4.0300114E1,-1.6881254E1,-7.224953E1,-1.5337007E2,8.723484E0,-4.879208E1,8.995334E-1,-2.3565205E1,1.6515469E1,-5.0828022E1,-3.848813E1,-1.7837286E1,-7.582358E1,-5.8176514E1,5.1612095E1,1.4984695E2,6.5194917E0,-6.7256627E0,2.586394E0,-6.9009914E0,3.612227E1,6.0279317E0,-4.9170623E0,-1.5326523E0,2.3927347E1,-8.462805E-1,1.398011E1,-1.4338873E1,-3.233695E1,-1.9273882E1,2.3086355E1,-2.5948212E1,-3.1084977E-2,1.9290623E1,-5.903316E1,8.555446E1,-1.6492887E1,5.006267E1,6.867598E1,9.18532E-1,-2.9410653E0,-1.5146173E1,3.2153287E0,-6.6491113E0,3.5477264E1,1.3240569E0,-2.163586E1,1.9202177E1,-2.6322439E0,1.0584448E1,1.3007611E1,-4.57789E0,8.5216255E0,-8.945831E-1,7.239374E0,9.799106E1,1.813474E1,-5.6290693E0,-3.034755E1,-1.942396E1,-4.840593E1,-5.5840945E0,1.4583977E0,1.6286453E1,5.6294017E0,-1.6800303E1,-8.9283484E-1,6.8520484E0,-1.2676155E1,-7.813163E-1,-4.568944E0,5.019606E1,-2.3554338E1,-5.8204865E-1],"categories":[],"categories_nodes":[],"categories_segments":[],"categories_sizes":[],"default_left":[0,0,0,0,0,0,0,0,0,0,0,0,0,0,0,0,0,0,0,0,0,0,0,0,0,0,0,0,0,0,0,0,0,0,0,0,0,0,0,0,0,0,0,0,0,0,0,0,0,0,0,0,0,0,0,0,0,0,0,0,0,0,0,0,0,0,0,0,0,0,0,0,0,0,0,0,0,0,0,0,0,0,0,0,0,0,0,0,0,0,0,0,0,0,0,0,0,0,0,0,0,0,0,0,0,0,0,0,0,0,0,0,0,0,0,0,0,0,0,0,0,0,0,0,0,0,0],"id":13,"left_children":[1,3,5,7,9,11,13,15,17,19,21,23,25,27,29,31,33,35,37,39,41,43,45,47,49,51,53,55,57,59,61,63,65,67,69,71,73,75,77,79,81,83,85,87,89,91,93,95,97,99,101,103,105,107,109,111,113,115,117,119,121,123,125,-1,-1,-1,-1,-1,-1,-1,-1,-1,-1,-1,-1,-1,-1,-1,-1,-1,-1,-1,-1,-1,-1,-1,-1,-1,-1,-1,-1,-1,-1,-1,-1,-1,-1,-1,-1,-1,-1,-1,-1,-1,-1,-1,-1,-1,-1,-1,-1,-1,-1,-1,-1,-1,-1,-1,-1,-1,-1,-1,-1,-1,-1,-1,-1],"loss_changes":[1.1539151E8,7.818461E7,1.9095824E8,6.925654E7,8.780325E7,3.483264E8,1.7014754E8,1.9141112E7,4.1159124E7,6.74587E7,3.0068966E7,2.6679382E8,1.651248E7,4.200635E7,1.3766434E8,1.7060992E7,1.1864796E6,7.7267864E7,4.392156E7,5.7120896E7,1.5073251E7,1.6683212E7,2.7736258E7,1.4624778E8,1.6577818E8,1.335455E7,4.164716E7,2.8405152E7,1.527252E7,1.3758054E8,8.770181E7,9.357168E6,7.99196E5,2.3876725E5,1.1398412E6,2.0406846E7,9.510588E7,1.2461212E7,7.2175384E7,5.7076816E7,1.8128992E7,3.10213E5,1.2260538E7,4.25376E5,1.310475E6,9.488204E7,3.2510884E7,8.859459E7,5.0825984E8,2.1863744E8,1.2456266E8,5.498574E6,4.30772E7,6.3576976E7,2.5549348E7,3.229016E6,6.534416E6,1.0494452E6,9.952644E6,2.6825962E8,9.71221E7,1.1821151E8,1.2072939E8,0E0,0E0,0E0,0E0,0E0,0E0,0E0,0E0,0E0,0E0,0E0,0E0,0E0,0E0,0E0,0E0,0E0,0E0,0E0,0E0,0E0,0E0,0E0,0E0,0E0,0E0,0E0,0E0,0E0,0E0,0E0,0E0,0E0,0E0,0E0,0E0,0E0,0E0,0E0,0E0,0E0,0E0,0E0,0E0,0E0,0E0,0E0,0E0,0E0,0E0,0E0,0E0,0E0,0E0,0E0,0E0,0E0,0E0,0E0,0E0,0E0,0E0,0E0,0E0],"parents":[2147483647,0,0,1,1,2,2,3,3,4,4,5,5,6,6,7,7,8,8,9,9,10,10,11,11,12,12,13,13,14,14,15,15,16,16,17,17,18,18,19,19,20,20,21,21,22,22,23,23,24,24,25,25,26,26,27,27,28,28,29,29,30,30,31,31,32,32,33,33,34,34,35,35,36,36,37,37,38,38,39,39,40,40,41,41,42,42,43,43,44,44,45,45,46,46,47,47,48,48,49,49,50,50,51,51,52,52,53,53,54,54,55,55,56,56,57,57,58,58,59,59,60,60,61,61,62,62],"right_children":[2,4,6,8,10,12,14,16,18,20,22,24,26,28,30,32,34,36,38,40,42,44,46,48,50,52,54,56,58,60,62,64,66,68,70,72,74,76,78,80,82,84,86,88,90,92,94,96,98,100,102,104,106,108,110,112,114,116,118,120,122,124,126,-1,-1,-1,-1,-1,-1,-1,-1,-1,-1,-1,-1,-1,-1,-1,-1,-1,-1,-1,-1,-1,-1,-1,-1,-1,-1,-1,-1,-1,-1,-1,-1,-1,-1,-1,-1,-1,-1,-1,-1,-1,-1,-1,-1,-1,-1,-1,-1,-1,-1,-1,-1,-1,-1,-1,-1,-1,-1,-1,-1,-1,-1,-1,-1],"split_conditions":[6.32E0,2.0429E3,3.406E1,1.0902E2,2.12069E3,4.31E0,1.0902E2,3.4E-1,7.2398E2,8.4644E2,9.184E1,7.117752E2,1.2885538E3,3.73E1,3.4075E2,2.17825E3,1.9652E2,6.8064594E2,1.87365E3,2.513E2,9.184E1,3.4E-1,6.4442E2,7.6806E2,6.6257E2,4.6027E2,2.3879E2,7.529E1,2.9348E2,2.5118E3,5.6819E2,5.3185E2,5.3529E2,2.04531E3,1.1813E3,9.5131E2,6.8473E2,2.31E0,1.60222E3,2E-1,2.5892E2,3.4165E2,6.4742426E2,8.1148E2,8.4644E2,5.9332E2,1.242211E3,1.907E3,7.2724E2,1.157E2,9.766E1,5.6483E2,5.6819E2,2.3637E2,1.0229E2,9.3723E2,1E-2,1E-2,3.9856E2,2.25958E3,7.4422E2,2.35362E3,1.16E0,-3.848813E1,-1.7837286E1,-7.582358E1,-5.8176514E1,5.1612095E1,1.4984695E2,6.5194917E0,-6.7256627E0,2.586394E0,-6.9009914E0,3.612227E1,6.0279317E0,-4.9170623E0,-1.5326523E0,2.3927347E1,-8.462805E-1,